wte|0|-0.48656234 -0.54532784 0.29993910 0.13804362 0.24623445 0.02388176 -0.27802415 -0.54385448 -0.66928441 -0.60266547 0.67714412 -0.37929291 -0.69009941 0.20479436 -0.60559477 -1.20127425 0.25502480 -0.21162650 -0.40037556 -0.28972553 0.41021664 0.74257891 -0.27428102 -0.19557034 -0.29427247 -0.06647645 0.75643463 0.59802467 0.32458965 -0.18690041 0.05577709 0.71724047
wte|1|-0.20959563 -0.04855126 -0.07326480 0.07008098 0.05314127 -0.09752598 0.06778891 -0.08017623 -0.00689951 -0.02351198 0.00915359 0.06549090 0.05107310 0.02799081 0.05199585 0.03827936 -0.05015884 -0.05738969 -0.03759746 0.03994611 -0.02000925 0.18686034 -0.06554340 -0.08790997 0.06147788 0.11374800 0.04045542 0.06686539 0.11410760 -0.00752220 -0.11383671 -0.04256612
wte|2|0.41712964 -1.23964229 0.58795550 0.20507383 0.29549049 -0.07991990 0.36701689 0.65366896 -0.21328580 0.07775720 -0.17304196 -0.11961414 1.43897001 0.25886091 0.81938449 0.03351724 -1.36814213 -0.01233447 -0.55217464 -0.14402765 -0.13465329 0.61325730 -0.42031141 0.33873446 0.45646469 0.17049624 0.40940768 0.31377901 0.02379396 -0.34578698 0.35592427 -0.34180750
wte|3|-0.26567954 -1.21310839 0.58842175 0.22018874 0.67719760 0.14223311 0.31139508 -0.45867886 -0.11516339 0.41485890 0.16107885 0.63637269 -0.06891412 0.60325805 -0.25750779 0.09948535 0.40126831 -0.35638739 1.17460593 -0.49020413 -0.55500921 0.17702456 -0.01319011 -0.27178218 0.06713750 -0.05386286 0.30644258 -0.08124742 0.73031991 0.07908139 0.91559150 -0.09116455
wte|4|0.53779503 -1.38678484 0.24552862 0.46546784 0.04752054 -0.56879862 0.30004879 -0.79974474 0.45033674 0.69682622 -0.43341063 -0.48733790 -0.23123982 -0.59795298 0.84891727 0.34079226 -0.73604228 -0.01098267 0.90122763 -0.03418552 0.25086196 0.32140032 -0.02261688 0.05910426 -0.42225587 0.07037358 0.66550690 -0.09639289 0.02344660 0.35110935 0.40998484 1.32326663
wte|5|0.23584089 -0.64463350 -0.32652214 -0.37774042 0.07622058 0.22208456 0.58681421 -0.78351705 0.07197885 0.12246049 0.02827136 0.08270967 -0.58742447 -0.26763160 -0.50039992 -0.29169431 -0.86006472 0.33429324 0.24589955 0.24496551 0.17005777 -0.71915925 0.12146890 0.07038362 -0.51462972 0.86093197 0.75114560 0.35374534 0.15350687 -0.35128967 -0.84686966 0.33873162
wte|6|0.00022046 0.18128082 -0.14898424 0.05562271 -0.02449960 -0.00801580 0.15212712 -0.00068585 0.17927550 -0.03537184 0.02804096 -0.03926780 -0.05525504 0.00499865 -0.02260572 0.01619933 -0.16840223 0.16019742 -0.01335975 0.13943244 -0.08056897 0.02340286 0.25319537 -0.06957833 -0.11962398 -0.04372076 0.03779907 0.05546720 0.10322934 -0.02056099 -0.12818006 -0.03480238
wte|7|-0.11776944 -0.21654735 0.10325478 0.22152008 0.26222063 -0.47158810 0.46323208 0.21896938 0.23164048 -0.28633511 -0.25099098 0.54617668 -0.16825393 -0.79684884 -0.37126226 -0.83357784 0.34714622 0.25416842 -0.25211182 -0.01822719 0.11613128 -0.44001675 0.24410006 1.25134161 -0.68905291 0.20887410 -0.55105478 0.72359036 -0.24094107 0.18135843 0.04431303 0.30642986
wte|8|-0.22690421 0.21650380 0.27848245 0.37852229 0.65084058 -0.02291493 -0.07365603 -0.09018417 0.51895761 -0.86121503 -0.29062061 0.39511405 0.60333431 -0.70258146 -0.31018452 -0.61447634 0.48502139 0.12105364 0.00094197 0.70465952 0.58231808 -0.05350843 -0.41453768 0.27785624 -0.79211038 0.43164657 0.63819944 0.86717510 -0.00533447 0.43312853 0.33342260 0.61735765
wte|9|-0.01069793 0.57115020 0.58027160 -0.00730588 0.48199765 -0.49084304 0.34010566 -0.17091537 0.49388155 -0.44776587 -0.14224534 0.59427022 -0.01172034 -0.73879932 0.03735933 -0.84238052 0.15626324 0.42206961 -0.12967352 0.54496730 0.41309845 0.29376184 0.32086094 0.81700055 -0.59554063 0.41389334 -0.06306476 0.94110860 -0.61595142 0.01510656 -0.32489912 0.61474940
wte|10|-0.16485607 0.16874054 0.05630686 0.08750248 0.34316198 -0.71823980 0.06510015 0.22499817 0.23115193 -0.14958092 -0.37206934 0.37053080 0.43882513 -0.14202888 0.16056121 -0.60147805 0.13419629 -0.07713230 0.12170075 0.41029084 0.31107022 -0.51010337 0.82077219 1.00817426 -1.02973951 0.48993761 -0.16087427 0.99127451 -0.62280192 0.40223378 0.58854773 0.39806116
wte|11|0.13346827 0.56670034 0.09770581 -0.57279665 -0.05288781 0.25502758 1.28941974 0.27133094 -0.04791625 0.11320078 -0.35030719 -0.28800763 -0.20359515 0.05689263 0.45187899 0.32257443 0.65663789 0.25587378 -1.01201103 -0.22205831 -0.52312597 -0.66448377 -0.11685650 0.67178082 -0.42031545 -0.33858313 -0.78495532 0.10729641 -0.31697235 -0.25882012 -0.16801709 0.20697896
wte|12|-0.10103034 0.36864519 0.50729154 -0.30998539 0.96034325 0.50535112 0.89879295 0.37267200 -0.10926699 0.30317042 -0.05044003 -0.37209812 0.01651740 -0.42022912 0.21385855 0.55153614 -0.24276471 0.16674766 -0.26195503 1.08609912 -0.26067256 -0.53038815 -0.22888389 -0.49522024 -0.24092807 -0.60032073 0.24370211 -0.26097086 -0.39712901 0.02727843 0.41876306 -0.17501561
wte|13|-0.01492419 0.48138402 0.60683091 -0.34879099 0.04310440 0.83572521 0.46875089 0.19549423 -0.06168954 0.05350735 -0.00597086 -0.27797894 -0.09044703 -0.97257584 0.06751684 -0.51671056 0.36464755 0.24214846 0.13764584 -0.00849605 0.11974040 0.05306000 -1.02027172 0.01276772 -0.55987124 -1.09898952 -0.88203983 0.18588524 -0.18009900 0.07602392 -0.04503996 -0.21553981
wte|14|-0.05702381 0.11729361 0.06445267 -0.68266750 -0.01594058 -0.25794663 0.42815370 0.21409488 0.38258708 0.04069137 -0.33354008 -0.77741116 0.10825430 -0.08685855 0.51136531 -0.05854146 -0.45936793 -0.31557064 0.41288362 0.79916178 -0.31866542 -0.99633839 -0.21143178 0.48320769 -0.27963209 -0.43332279 -0.87168505 0.43539410 -0.66276583 0.41637566 -0.37573742 -0.26725784
wte|15|-0.12536195 -0.04894397 -0.68888684 0.36599567 -0.43058582 -0.67363217 0.12041202 -0.63713975 -0.50348909 -0.62357979 -0.45203496 0.57251718 0.55029915 -0.47854544 -0.14506642 0.44855438 -0.57524952 0.67236511 0.42812598 -0.36876318 -0.26595242 -0.06747207 -1.17192689 -0.20462245 0.51894347 -0.67571233 -0.01202728 0.35775641 -0.02221546 -0.31082015 -0.05522749 0.09908030
wte|16|0.24186259 0.17172469 -0.26799839 -0.02004972 -0.63422923 -0.29805680 -0.05232972 -0.51931870 0.25704178 -0.35615979 -0.22831585 0.20691256 0.43352461 -0.83081211 -0.13291173 0.00426002 0.41145882 1.38192889 0.38072758 0.04342289 0.01779124 -0.27429210 -0.51826528 -0.29636118 0.99575323 -0.61606482 0.66961179 -0.27525755 0.22455675 -0.68132432 -0.13463467 -0.19008520
wte|17|0.17326619 0.66074279 -0.38870473 -0.09348847 -0.31658542 0.00872254 -0.45193694 -0.51518413 0.35587969 -0.35595686 0.05770065 -0.09181563 1.31988635 -0.32645254 0.03960547 0.13678869 -0.48514835 0.97691771 -0.10071984 0.35507527 0.09479179 -0.55016841 0.06459645 -0.48459353 0.80677139 0.00983300 0.48917683 -0.23406185 0.39929316 -0.66391408 0.09496973 0.09870770
wte|18|-0.10531474 0.32102946 -0.27850487 0.40226624 -0.36362725 0.53281987 0.27749715 -0.48124062 0.24069525 0.06831287 -0.07999289 -0.18413356 1.15615196 -0.11228635 -0.14975372 -0.02527555 -0.17937036 0.88945406 0.08765137 0.47126667 -0.48108877 -0.65091000 0.48967921 0.21351368 0.65912420 0.25335979 0.19549710 -0.36328228 0.56019469 -1.01079543 0.46912103 0.57465746
wte|19|-0.19930363 -0.48374199 -0.39163548 0.30638396 -0.65498848 0.34441078 0.18778527 -0.52534656 0.18998189 0.14719278 -0.04951640 0.24224109 0.91061109 -0.05462330 -0.40219343 -0.06048508 -0.42660427 0.58100287 -0.05579311 -0.01480349 -0.83130284 -0.74440205 0.93580045 0.27277322 -0.35136189 -0.22721450 -0.38509694 -0.37706526 0.23895606 -0.93732758 0.42597398 0.59012377
wte|20|-0.16643042 -0.61018543 -0.25869933 -0.32995496 -0.91635637 0.12162061 0.27337226 -0.83724301 0.27947169 0.33398107 -0.19288870 1.07638298 0.50321799 -0.43272314 0.02434000 0.01041434 -0.19602338 0.54393966 0.20217424 -0.65539045 -0.55244899 -0.55028709 0.59765190 0.43039682 0.00697795 -0.91557952 -0.44113539 -0.06500354 -0.16986768 -0.45408539 0.30350240 -0.07554285
wte|21|0.61606379 0.27345652 -0.09413685 -0.26408949 -0.65366656 -0.39640722 -0.17835316 -0.80527938 0.02774238 0.24343042 0.05603129 0.84863847 0.64070513 -0.08860017 0.32303016 -0.20792406 -0.64876193 0.62437361 0.38719364 -0.31542105 -0.28288142 -0.46682564 0.53441523 -0.53158304 0.10274182 -0.80540404 -0.65430810 0.30954040 -0.08489551 -0.39795812 -0.19145842 -0.34141130
wte|22|0.90276527 0.86486213 -0.12323416 -0.01811968 -0.14832235 -0.26364162 -0.43484078 -0.74442545 -0.09788651 -0.28977547 0.16035273 0.29278719 0.54091984 -0.34788863 0.26391489 -0.15726582 -0.83607352 0.92245924 0.62454691 0.20360796 0.25709523 -0.18893076 0.48589921 -0.24719098 0.70866805 -0.55406876 -0.47670579 0.28259771 -0.37266993 -0.26546131 -0.24120506 -0.20520179
wte|23|0.94047856 0.82266366 -0.15415983 -0.02856553 0.11191318 -0.17394522 0.19722650 -0.27663673 0.12372121 -0.52166035 -0.11512214 0.49019658 0.13139940 -0.26145958 -0.15433058 0.02798679 -0.74939059 0.63807437 0.81397069 0.12109191 -0.38111067 -0.01856405 0.46283077 0.46159743 1.07040666 -0.89039249 -0.01704978 0.12591863 -0.50575390 -0.12177964 -0.26598709 0.32435705
wte|24|0.55358695 0.07298670 -0.28969840 -0.13529038 -0.24659383 0.67594345 0.12327345 -0.23897174 0.47316478 -0.80366303 -0.35743064 0.84102941 0.06775606 -0.34432513 -0.50236105 0.14140152 -0.82638913 0.30477119 0.53522113 -0.24964701 -0.83238182 0.02130789 -0.36471693 0.53481405 0.95056097 -0.93879236 0.13397392 0.23276930 -0.10009354 0.20482981 0.17003264 0.04761418
wte|25|-0.10069221 -0.38984299 -0.62669505 -0.90729022 0.01851062 0.37092682 -0.41538297 0.30343804 -0.51481689 0.72376948 -0.69157816 -0.34985150 -0.01982390 -0.35210255 -0.43095663 0.21972658 0.49954354 -0.40290311 -0.27749196 -0.67720610 -0.02532377 -0.87274891 0.13487181 -0.77605179 0.27921091 0.08710412 0.50788970 0.02390038 0.14217199 0.01177791 0.27504472 -1.06300642
wte|26|0.30698624 -0.34252208 -0.55852544 -0.02180119 0.38909594 0.11233275 -0.35068971 -0.06063919 -0.30020726 0.68351104 -0.57525639 -1.09350703 0.41512677 0.03975178 -0.34196316 0.40048308 0.16048534 -0.22524350 -0.00271369 -0.31354845 0.31642108 -0.91679865 1.00705996 -0.29993069 0.23229034 0.30355814 -0.00803747 0.45376935 -0.05222957 0.01198579 -0.45265432 -0.62083446
wte|27|0.31592792 0.31190215 0.05216886 0.06981843 0.71747742 -0.16429766 -0.69226037 0.11665079 -0.31190728 0.46992510 -0.50332229 -0.93667933 0.55878297 0.53143511 -0.41126933 0.34926276 0.47375552 0.32519826 0.12989210 -0.44718177 0.62309490 -0.98897130 0.36115413 -0.09472264 -0.04808502 0.68455150 -0.21416455 0.18691157 -0.02052784 -0.32972846 -0.62565574 -0.10279976
wte|28|-0.14071508 0.19066058 0.19752125 0.18098586 0.84827623 -0.02029274 -0.08183397 0.35488922 -0.45938963 0.10188287 -0.41979297 -0.58152440 0.70301589 0.05018675 -0.59821745 0.25666815 0.77738817 0.57300404 -0.06881847 -0.93495956 0.70150191 -0.35207521 -0.18218733 -0.46707350 -0.32809760 0.26841320 0.11835583 0.27098735 0.25523325 -0.31902191 -0.76756774 0.28151122
wte|29|-0.46435149 -0.09812352 0.42367194 0.03376134 0.43177278 0.83585778 0.10522530 -0.05273673 -0.11600318 -0.11621988 -0.25391246 -0.18101407 0.54238480 -0.18004097 -0.56856149 -0.09399949 0.74177121 0.52786064 -0.38731176 -0.91235100 0.29055625 0.34474766 -0.11485668 -0.54733126 -0.62650616 0.23030902 0.84854718 0.06257863 -0.05692931 0.24407135 -0.84792710 0.27493607
wte|30|-0.42172715 -0.25897741 -0.15850331 -0.45248952 0.16112516 1.19014414 0.39824772 -0.32119246 -0.36530164 0.32240737 -0.54854138 0.02183211 0.32727355 -0.24187424 -0.53237607 0.25842353 0.37164947 0.01922184 -0.66722239 -0.54554715 0.37413008 0.52185291 0.52241688 -0.38030945 -0.20330119 -0.15954954 0.97285823 0.02996121 -0.54381950 0.60786397 -0.28566742 0.00267570
wte|31|0.20098080 0.24217909 -0.05110326 -0.09594025 0.37227738 0.95989341 0.06007703 0.03857609 0.20129315 0.34201694 -0.50588801 -0.25624190 0.26798071 0.10124499 -0.12209630 0.24732469 0.21062855 -0.16101008 -0.61254517 -0.43097843 0.05418524 -0.04094252 1.22474002 -0.14963986 0.40267720 0.17051073 1.09164762 -0.05715498 -0.80957520 0.64771236 -0.34782606 -0.20770226
wte|32|0.68957095 0.34289795 0.00057796 -0.26539020 0.42378555 0.50785811 -0.36231813 0.25638842 0.67799939 0.09588706 -0.37183379 -0.69804539 -0.03951100 0.39184543 -0.66279020 -0.14080549 -0.12949341 -0.35967504 -0.37959797 -0.26928227 0.05542250 -0.52837246 1.12919575 0.05050893 0.80690828 0.48321047 0.48957800 -0.15173566 -0.33681752 0.50510781 -0.45927685 -0.22061694
wte|33|0.19310001 -0.25411857 0.17629485 -0.09042479 0.84896860 -0.02721301 -0.33877034 0.53106286 0.30720046 -0.18391157 -0.58453671 -0.48128436 -0.36816543 0.00908955 -1.40547264 -0.18525091 -0.08470615 -0.05661988 -0.46688556 -0.63080390 0.10045646 -0.52252018 0.25743240 -0.06601587 0.81391649 0.26434400 -0.12970390 -0.15908544 0.19281238 -0.01741567 -0.89067485 -0.05422504
wte|34|-0.19364435 -0.23370538 0.14589623 -0.41114793 0.16700838 -0.25505163 0.40213357 0.71709079 0.57929820 -0.22237430 -0.60789253 0.18071529 -0.08749872 -0.09135986 -0.60528961 0.00147855 0.41006923 0.06134955 -0.19923314 -1.78564602 0.67980022 -0.53655592 -0.13820051 -0.02059591 0.35667208 0.54860076 0.38580693 -0.10325561 0.28120403 0.17493486 -0.60104831 0.13720731
wte|35|1.97949825 -0.80445133 -0.16195470 -0.05580291 -0.28753385 -0.05416202 0.15252533 -0.55694614 -0.32557774 0.23442258 -0.96777621 -0.48007632 -0.43636380 -0.51446989 0.11302356 -1.06665805 -0.55209072 0.12861506 -0.19227331 -0.11620805 0.32856937 -0.02169882 -0.35209837 -0.06591581 -0.33665207 0.07629462 0.27026726 -0.93232869 -0.00197196 0.02373611 0.01631149 0.61716632
wte|36|-0.36469601 0.88064195 0.63260203 -0.20030582 -0.13593191 0.78725852 0.62633434 -0.04070294 0.19585668 -0.35482030 0.47537353 -0.14620431 -1.08078497 -0.65020153 0.51965514 -0.27314416 0.50931434 -0.13701001 -0.42708396 0.92644274 -0.07932185 0.24198971 0.36315515 -0.08856910 0.43992605 -0.26477533 -1.04246688 0.04360924 -0.23806296 0.14289854 0.15293169 -0.65431428
wte|37|-0.01775093 0.23141909 -0.22875988 -0.60236281 0.68250520 0.06305605 -0.33184547 -0.51561707 0.37887934 0.35859817 -0.23293284 1.16358420 0.42494530 -0.67347342 -0.67850751 -0.64736692 -0.02302778 -0.06615839 -0.43452054 0.36663616 0.14433430 -0.33470161 -0.12474799 0.55571608 -0.30892609 0.64461066 0.25342849 0.95070926 -0.46210576 -0.21645474 -0.04452065 -0.24143026
wte|38|-0.56287488 0.17839583 -0.07213070 -0.32233992 0.58668429 -0.35828332 -0.80251299 0.07206681 -0.18214883 -1.14954904 0.09078063 -0.01596768 -0.94042743 -0.14111494 0.49146202 0.23128875 0.37169162 -0.65074992 0.00822198 -0.43781770 0.54931196 0.07088890 0.49191801 0.43884590 0.44439798 -0.26230643 -0.41462780 0.17896547 0.42712428 -0.25172676 0.95066311 0.32703615
wte|39|0.00929136 -0.02200966 0.03291998 -0.12137979 -0.01001302 -0.07673686 -0.14950751 -0.21300154 0.16464610 -0.18351498 0.12547382 0.15511591 -0.10529906 -0.03124007 0.30881919 0.04742826 0.02476008 -0.01526332 0.10311447 -0.11128685 0.11616530 0.08645657 0.12846315 0.13098919 -0.07139429 -0.00824580 -0.23538930 0.08217637 0.07383328 0.07665384 0.24551008 0.02965049
wte|40|0.68376765 -0.42283576 0.05378233 0.18751954 0.11262279 -0.00643057 0.59417821 -0.71499077 -0.63896625 0.48888790 0.59935068 -0.00065123 -0.72655101 0.08778615 0.27924555 -0.14625987 -1.42271742 -0.28122130 0.51031206 0.37867895 -0.19057071 -0.54760394 0.33539697 -0.71247875 0.16498753 0.28098169 0.19723875 -0.04830084 0.41313853 -0.54975421 0.24574653 0.72208624
wte|41|0.78094469 -0.53189421 -0.33613168 -0.08878928 1.02878372 -0.00813302 0.26203096 0.74561410 0.21107834 0.08214408 0.48818327 0.57740904 0.11254133 -0.87290759 -0.74877165 -0.07063580 0.53608365 0.03636619 0.56778309 -0.22166804 0.26032873 -0.14302658 0.30173207 -0.24969477 -0.08095436 -0.17283429 0.60279072 -0.17591442 -0.40353505 -0.80902732 1.10553118 -0.10999903
wte|42|-1.09091480 -0.90087386 0.11175321 0.00773618 -1.31909767 1.42992112 -0.19640381 0.64161599 0.46783090 0.12931008 -0.06539214 0.32936311 0.87871467 -0.04904841 0.16209591 0.39344576 -0.05913601 -0.06065901 0.41196105 -0.84443795 -0.59148689 -1.03002158 -0.13349967 -0.75638489 -0.34947939 0.65429605 0.81180593 -0.13554057 -0.77759750 1.04729590 0.15326702 -0.34813317
wte|43|-0.53465315 0.56284339 0.85575024 0.67513150 -0.47424053 0.36145973 -0.40544734 0.49049317 -0.17339417 -0.29028520 0.37960973 -0.16872545 0.33733442 0.31492183 0.52425670 0.12692891 0.51363425 -0.24602698 -0.04768335 -0.39742959 0.10792992 -0.66500823 -0.02197871 0.00180055 -0.38979047 0.50757893 -0.32336466 -0.66362395 -0.08267204 0.48351706 -0.21307225 -0.53917034
wte|44|-0.69160963 0.04008446 0.72098126 0.56412545 -0.62883981 0.13198772 -0.09699578 0.58714603 -0.41454059 -0.32814183 0.65495709 -0.17319052 -0.14284770 0.48874354 -0.21786050 -0.42095715 -0.01400360 -0.48897824 -0.01493188 -0.58099369 0.36630241 -0.41872576 0.39800849 0.16166866 -0.06988488 0.74466453 -0.19624756 -0.28211199 -0.13913431 0.28526344 -0.97963254 -0.04036466
wte|45|-0.67148850 0.75361058 0.34123927 0.46440138 -0.66933293 -0.11257077 -0.00597732 0.01105724 -0.36713243 -0.44919967 0.43707899 -0.38539465 -0.47640388 0.30961446 -0.08179406 0.15939408 0.18678606 -0.12818804 -0.19886531 -0.22437974 0.31938775 -0.04121646 1.01674379 -0.30982559 0.15541716 0.76921636 0.27171490 -0.79296005 -0.31633769 0.64823436 -0.56890434 0.03826123
wte|46|-0.45562377 0.07170926 -0.20621649 0.95743457 -0.58570408 -0.27887241 -0.69942158 0.24050989 -0.45032018 -0.39656951 0.03425237 -0.22353888 -0.25009082 0.35132727 -0.01626089 0.51645337 -0.13787679 -0.38740452 0.23719458 -0.30034723 -0.11941923 -0.43843442 0.80842329 -0.73984757 0.47061748 0.60655033 -0.11605899 -0.97313344 -0.45293204 0.51506288 -0.11278285 -0.11647857
wte|47|-0.07516729 -0.11261724 -0.15552021 0.99218543 -0.64993624 -0.24786309 -1.05021964 0.07912388 -1.03826671 -0.11635509 -0.10516563 -0.26683066 -0.08420333 0.40530966 -0.32069713 0.16681767 -0.26427564 -0.47545195 0.54169487 -0.26047811 0.43597932 -0.50504207 0.45801972 -0.46148701 -0.00176884 0.54522330 0.27242076 -0.40903099 -0.10021490 0.18318436 0.00767741 -0.29612344
wte|48|-0.43483133 0.44916427 0.78729197 0.66306136 -0.22333045 0.20085942 -0.74611889 0.30534671 -0.94985045 -0.37185545 0.50586478 -0.63087230 -0.16857361 0.25340162 0.09411212 0.11628030 -0.00274195 -0.60531759 -0.08223499 -0.07821008 0.47585329 -0.62029938 0.66387735 -0.55338634 0.02261843 0.80823521 -0.40472963 0.15962653 -0.21662011 0.61663412 -0.43447138 -0.31016899
wte|49|-0.06550963 -0.18909998 0.65835816 0.92070670 -0.23257763 0.25803895 -0.42440430 0.19073695 -0.31485751 -0.39859323 0.40266692 -0.12219589 -0.39590515 0.14233337 0.02524068 0.03948891 -0.17683795 -0.33996144 0.06227635 0.19184567 0.04822525 -0.03508317 1.14213493 -0.24550317 0.02940107 0.51471355 0.07157979 -0.40896447 0.19148613 0.25513713 -0.42935305 -0.57116492
wte|50|-0.33808916 0.10042654 0.46004355 0.98362462 -0.41327141 0.42039955 -0.76110365 -0.06524959 -0.59076880 -0.53605893 0.45988408 -0.36069813 -0.02250180 0.45435262 0.02229639 0.18675000 -0.21649036 -0.42400639 -0.14084362 0.11117934 -0.07532924 0.19244628 0.87013106 -0.51988002 0.00721105 0.45170241 0.04410428 -0.30487533 -0.25313119 0.77776969 -0.05442498 -0.30739275
wte|51|-0.84077660 0.18295778 0.05991838 0.96817275 -0.15822560 0.15937884 -0.80548632 -0.18828431 -0.79528479 -0.62078997 0.31843981 -0.45262546 0.11529498 0.25404625 0.23002294 0.32218823 -0.01179338 -0.50712921 -0.21230872 0.07043857 0.22564103 0.25588932 0.17139268 -0.47976676 -0.28979973 0.22458636 0.36262106 -0.23089492 -0.30727382 0.79068188 -0.06957340 -0.22012147
wte|52|-1.45699740 0.08372026 0.01179440 0.23576591 -0.36930567 0.04754134 -0.41705381 0.52887543 -0.65618797 -0.48870191 0.63028478 -0.77418543 -0.33336770 0.29252492 -0.19266707 0.29437069 0.09468355 -0.26776652 -0.26669344 0.20230040 -0.00047725 0.34500460 0.07626102 -0.74051276 -0.56087329 0.50488688 0.11732155 -0.70394473 0.29606811 0.37037198 -0.23824269 -0.38935206
wte|53|-0.12077121 0.28763738 0.02220271 0.64113350 0.02548437 0.21577899 -0.07258670 -0.30607965 0.35465894 0.68137509 0.39698852 -0.37197674 -0.46908233 0.61469561 -0.22873874 0.87707397 -0.02916001 -0.18844851 -0.28884141 0.63401524 0.60211735 0.15262385 -0.60518964 -0.72869484 0.03926467 -0.66941552 0.10372443 0.30607331 0.33227962 -0.64970899 0.19267391 -1.01488219
wte|54|-0.63548827 0.65478792 -0.10051439 -0.28398736 -0.66979115 -0.93887400 0.45952531 0.66301095 -0.02268875 0.51603387 0.13408719 -0.27447497 0.39282389 0.33528328 -0.29649313 0.04390866 0.21324931 0.21257353 -0.37944276 -0.47090759 1.09922169 0.05078279 -0.52735234 0.85395785 -0.52173728 0.25859608 -0.17172066 -0.75008996 0.26637189 -0.43600769 -0.36138499 -0.18055445
wte|55|-0.48860127 0.10249054 0.02678298 0.23512602 -0.06491980 -0.14034784 0.36456233 -0.20414374 0.41486859 0.52801791 0.73425228 0.04591953 -0.23917871 0.84224869 -0.23974028 -0.14191674 -0.33299103 0.36241346 -0.57613516 -0.33902988 0.96292785 0.70817290 0.39705015 0.18319935 -0.11232280 0.31356802 -0.21533365 -0.69533805 0.18152729 -0.38999743 -0.82465506 -0.07465162
wte|56|-0.68454916 0.17856673 -0.44489360 -0.15914853 -0.28525808 -0.20733901 0.51130788 0.18680303 0.59025069 0.04970991 0.16156846 0.03412649 -0.62062540 0.48428964 -0.82357884 -0.04175852 -0.24656732 0.01294537 -1.00656627 -0.09994809 0.13409814 0.54076733 -0.11071825 0.54554936 0.33653003 -0.11386621 0.12428367 -0.90833410 -0.37426386 0.17291928 -0.48141607 -0.10011594
wte|57|-0.20503001 0.26157687 -0.73652041 0.04170896 -0.14194337 -1.02311766 0.06498269 0.19116060 0.85831708 -0.02213449 0.41939673 -0.68469538 -0.25381281 0.94415286 -0.72742276 0.23775607 -0.39480860 -0.47923494 -0.51550991 0.34597402 0.11616727 -0.19809273 0.21361442 0.84018646 0.56131153 0.51140092 -0.33238554 -0.68709934 0.13530332 0.12718010 -0.60254442 -0.31789558
wte|58|-0.08052001 0.28672589 -0.82021221 -0.31138123 -0.75206733 -0.58658868 -0.07804695 0.30750802 -0.36690474 0.86448521 0.13161563 -0.29036698 0.06946684 0.81195603 -0.21363656 0.35907198 -0.52715093 -0.36724452 -0.26796611 0.24994193 0.26353476 -0.49801874 0.05147275 0.36598166 0.16376899 0.11084813 -0.08927371 -0.41168027 -0.35838282 0.04677095 -0.11670898 -0.91996063
wte|59|-0.14670357 0.33693928 -0.70496872 0.21845661 -0.04243907 -0.64637954 -0.11927853 -0.17019708 -0.70843310 0.63998882 0.28828304 -0.48791318 -0.10306902 0.50464752 -0.53601687 -0.02806474 -0.06998871 -0.12615700 0.23402379 0.14469451 0.84314539 -0.24531011 -0.74943687 -0.06010523 -0.00723098 0.05567233 -0.68955584 -0.48602466 0.68226494 -0.73988510 -0.63128872 -0.68219129
wte|60|-0.19156047 0.18455302 -0.29433846 0.61948430 0.10253591 -0.21068590 -0.37897176 -0.82099590 0.12417246 0.74323542 0.73706011 -0.59274199 0.03753308 0.83413514 -0.08643536 0.02849792 -0.49394328 -0.41335565 0.37259705 0.88257139 0.50048052 0.39106730 0.36005187 0.20051902 -0.18854702 0.03286992 -0.53405645 -0.44896527 0.05027182 -0.72250204 -0.51279861 -1.12022877
wte|61|-0.40145176 0.29749077 -0.21467775 0.29195787 0.03249861 0.30815210 -0.00077090 -0.11376980 -0.13128041 0.16169342 0.65794319 0.02071224 -0.22324526 0.51813588 -0.67055011 -0.22446311 -0.64615839 -0.08719388 -0.61236748 1.01737240 0.22939418 0.58255584 0.29494810 -0.32655490 0.32746947 -0.22260428 0.50409797 -0.24761167 -0.31445125 0.19353104 -0.87248037 -0.79361676
wte|62|-0.19584465 -0.26616723 -0.07899858 0.50694590 -0.32617762 0.41594009 -0.31264427 -0.40154968 -0.65575881 0.71362708 0.45310060 0.00354864 0.29090609 0.40045517 -0.12538674 0.10036557 0.05923527 0.40648400 -0.30900850 0.65274502 0.73218782 1.23095355 0.22954475 -0.19735451 -0.69616485 -0.52521935 -0.09309504 -0.08578776 -0.12434029 -0.03678179 -0.44513565 -0.48480416
wte|63|-0.60247880 -0.14712745 -0.87622500 -0.07891262 -0.52723159 -0.26934384 -0.06470829 -0.07305857 -0.51365910 0.43178865 0.12951339 -0.35311127 0.23186378 0.56152555 -0.40511192 0.23963660 -0.53562455 -0.19839114 -0.47045358 0.49969679 0.35846466 0.48432441 -0.34650800 0.15625164 -0.52609994 0.12086255 0.58785940 -0.41970303 -0.51835741 0.35297506 -0.15034362 -0.42247965
wte|64|-0.07618549 0.88454069 0.09325182 0.23754983 -0.28296648 0.26651536 0.27066795 0.09372629 0.15999568 0.57047621 -0.15649691 -0.00919599 0.23933726 0.26693486 0.22984754 -0.03490450 -0.12198428 -0.60084001 -0.74285506 0.27261855 0.91635052 0.04937245 -0.29776317 0.68693860 -0.19822075 -0.15926087 0.11179668 0.02322034 0.20895739 0.32186823 -0.69109065 -0.09749998
wte|65|-0.36273116 0.02648172 -0.20405640 -0.22761892 -0.32358151 -0.08589843 0.13843911 0.25194532 -0.29020198 0.11675786 -0.00769407 -0.69616517 -0.11265360 0.29438226 -0.10517190 -0.18943871 -0.36445960 -0.02557637 -0.41042486 0.17211805 0.67932549 -0.10553432 -0.22144479 0.04440343 -0.05421245 -0.23413694 0.13539457 -0.05482925 -0.27798915 0.22939872 -0.61649923 -0.26259457
wte|66|-0.18376234 0.31026040 -0.13749773 0.14487375 -0.18609659 0.12804154 0.25568074 -0.11004920 -0.10275298 0.19770807 -0.13452922 -0.25991782 -0.03259559 0.65942495 -0.11772712 0.10767384 -0.37737928 -0.46880682 -0.54086960 0.24701105 0.35102563 0.15400787 -0.15820064 0.23797879 -0.25642810 -0.33920853 0.26757959 0.05147695 -0.24013630 0.07317281 -0.17917105 -0.17454978
wte|67|-0.18712624 -0.12729328 -0.16633389 -0.44124573 -0.13799599 -0.06435664 0.02463176 0.35238736 -0.07707975 0.44216402 0.08471892 -0.42417070 0.08918259 0.37932145 -0.30762504 -0.17393172 -0.02848993 0.01932014 0.12081404 0.38573538 0.30544227 -0.03895073 -0.23244695 0.16107506 -0.02914622 0.08635186 0.13393968 -0.19632072 0.24867461 0.17771031 -0.22977688 -0.32564846
wte|68|-0.26846565 0.13445863 0.04871531 0.02604812 0.05372815 -0.22711653 0.17398704 0.13630105 -0.27945930 0.31698794 -0.00821754 0.01506868 0.29442340 0.45466934 -0.08672499 -0.12911403 -0.03580352 0.05979093 -0.37062766 0.24051145 0.15503695 0.10849612 0.02592833 0.28016574 0.04861998 -0.08701983 -0.18850881 0.30850501 -0.00315060 0.14906544 -0.06227949 -0.22174503
wte|69|-0.09064956 0.02888460 0.10086737 0.30667623 -0.19890777 -0.36080310 0.14360887 -0.02925176 -0.38025027 0.20393468 0.24866924 -0.26234406 0.01400639 0.11050921 -0.42816283 0.22487927 -0.27448321 -0.03769241 0.07935853 0.34633299 0.38007937 0.21766718 -0.07105736 0.30532998 -0.09862576 0.08901332 -0.18517324 -0.09050766 0.02346407 0.10819624 -0.30787943 0.03550187
wte|70|-0.17034999 0.12700815 0.05354935 0.19775018 -0.33855471 0.03447985 0.15423502 0.11615934 0.14941321 0.39722030 0.05811133 -0.16434407 0.01419066 0.43215728 0.06494757 0.22425439 -0.17372197 -0.20345580 -0.05493773 0.34452402 0.32452276 0.18827547 -0.15193555 0.00393321 -0.25489342 -0.10517272 0.09791540 -0.39308550 0.25367743 0.09574033 -0.40241238 -0.14337957
wte|71|-0.16629876 -0.07507210 0.01525010 -0.08741639 -0.32592111 0.04525853 -0.04250978 0.07557471 -0.05135637 0.09436184 0.04406815 0.07171224 0.08270170 0.36929315 -0.07097506 0.11593415 -0.26779321 -0.37659502 -0.16072380 0.33743310 0.13217974 -0.05012502 -0.09371329 0.30326340 -0.29829807 -0.15341067 -0.01046853 -0.26813915 0.04393038 0.09724392 -0.35957224 -0.00618194
wte|72|0.05733103 -0.14084825 0.04031204 0.07064930 -0.21210165 -0.07438132 0.05332493 -0.13313222 -0.02317396 0.03566795 0.00656507 0.05679240 -0.03385201 0.10959968 -0.01290133 0.01890287 -0.11520007 -0.19722303 -0.08969535 0.11706826 0.19493333 0.10400763 -0.24362347 0.21318970 -0.05399817 0.04884898 0.17556232 -0.13104492 0.03799491 0.12759886 -0.22776821 -0.11728215
wte|73|-0.02246701 0.10669657 0.04693184 -0.04619064 -0.16060964 -0.10801953 -0.06030154 0.10804964 -0.28942535 0.26691936 0.18013571 -0.22648061 0.07642585 0.09972629 -0.18575240 -0.26200497 -0.27307493 -0.17519476 -0.31472570 0.36255882 0.15244407 0.10681475 -0.31250891 0.01054743 0.01865431 0.04204952 0.04684225 -0.22832833 0.21245722 0.27386841 -0.02431649 -0.28646501
wpe|0|0.20896244 -0.65848104 0.67926653 0.42461578 -0.45046327 0.62767256 -0.10928765 -0.43585597 -0.32837922 -0.67763751 -1.19882720 -0.43239921 0.79225686 -0.51891753 0.38844879 0.06530629 0.15234888 -0.33822174 0.01657473 0.13410198 0.81237803 -0.51428899 0.59192624 0.69696573 0.25150359 -0.74846918 0.32490110 -0.91944224 0.17484949 -0.93232867 -0.74196296 -0.32597135
wpe|1|0.25725982 -0.31777068 0.61623568 0.41642482 -0.16346187 0.25701929 0.17493463 -0.44446572 -0.25816549 -0.70296977 -1.03950066 -0.25977124 0.87901955 -0.38494650 0.45085188 -0.12577645 -0.08005990 -0.58033687 -0.09847632 -0.10021392 0.70045186 -0.46059793 0.37228635 0.49910036 -0.10667382 -0.68152327 0.51241001 -0.81849227 0.01784718 -1.09170470 -0.26337851 -0.56738665
wpe|2|0.27364749 -0.09867916 0.67666034 0.51126377 -0.32912397 0.36833376 -0.08374968 -0.10378313 -0.32778797 -0.59492452 -0.76640557 -0.06803189 0.28330065 -0.22596883 0.35086294 -0.03135734 -0.11405704 -0.50335924 0.15368208 0.03152645 0.79798174 -0.57290753 0.38338137 0.50908886 -0.13366707 -0.69908560 0.54330802 -0.67629120 0.25367605 -0.84496109 -0.20275072 -0.38409170
wpe|3|0.21433235 -0.01970086 0.60585704 0.42515926 -0.43762568 0.28851976 0.06062381 0.01609528 -0.30311086 -0.60219289 -0.90290036 -0.06553680 0.15717944 -0.19664615 0.34005813 -0.03386094 -0.26596203 -0.45061603 -0.06396050 0.19350172 0.76543603 -0.36516014 0.41787189 0.24390070 -0.13649005 -0.64028406 0.39272014 -0.45243870 0.33722300 -0.71196619 -0.04674866 -0.35639703
wpe|4|0.23511708 -0.40280589 0.65098487 0.21585743 -0.51021198 0.28147546 -0.13135150 0.17571466 -0.42293195 -0.46296981 -0.51476662 0.15348978 0.37554125 -0.28568837 0.30486221 0.04279753 0.05858886 -0.46105894 0.00478301 0.26462336 0.52262122 -0.31252716 0.36548164 0.33362812 0.27582908 -0.46881844 0.33394632 -0.50534057 0.40188513 -0.54918778 -0.44292562 -0.15157487
wpe|5|0.30352272 0.04001836 0.41329299 0.43856424 -0.37488397 0.23346870 0.06756283 -0.07940789 -0.18824640 -0.45882879 -0.37056550 -0.21976912 0.43151944 -0.56406727 0.34663665 0.01768863 -0.12172250 -0.66291359 -0.16919696 -0.18225712 0.47619925 -0.30830391 0.41671355 0.22903571 -0.01068585 -0.65931084 0.52697291 -0.33219816 0.40275078 -0.41243451 -0.14941949 -0.23073283
wpe|6|0.18365251 -0.16134507 0.46544673 0.23412265 -0.25784983 0.03005084 -0.02208026 -0.36884994 -0.21722160 -0.44851724 -0.51671003 -0.28374596 0.50996022 -0.45990179 0.28836944 0.26092604 -0.20747819 -0.45165562 -0.17211627 -0.06797681 0.51075163 -0.15868150 0.29209856 0.46389529 0.04763013 -0.55335533 0.37099370 -0.24833803 0.33536184 -0.43035557 -0.08200978 -0.31203564
wpe|7|0.34583159 0.00442063 0.55855715 0.32492623 -0.17062006 0.09608075 0.24221770 -0.34393784 -0.39702465 -0.38720287 -0.34928574 -0.11279857 0.55113266 -0.26784176 0.11406226 0.05670460 -0.03820098 -0.69065697 -0.16244108 -0.03919103 0.54130245 -0.37692976 0.25313385 0.17731088 0.25277415 -0.64497457 0.30947698 -0.30248085 0.22178345 -0.29543643 -0.15609155 -0.15339813
wpe|8|0.10212239 -0.09863443 0.47842765 -0.04849938 -0.17800688 -0.02366402 0.35148600 -0.17546117 -0.41645901 -0.35919170 -0.24490203 -0.36016985 0.78901675 -0.47339551 0.28223406 0.02874429 -0.15161495 -0.67663065 0.06393811 -0.25824459 0.27392631 -0.24942483 0.24603513 0.31551826 0.15470121 -0.31546595 0.27928191 -0.45851926 0.10118610 -0.49364675 -0.34753106 0.06615283
wpe|9|0.13924239 0.06117155 0.24149414 0.36813702 -0.03781714 0.22031249 0.09925762 -0.27978157 -0.26810520 -0.41505095 -0.54696027 -0.26262206 0.51501161 -0.36178599 0.23765028 0.05220215 -0.28010014 -0.35549453 0.12668540 -0.08092175 0.35174738 -0.09964744 0.30847717 0.36252007 -0.04102204 -0.34192610 0.14596278 -0.31402334 0.31591507 -0.29111828 -0.29934531 -0.23130668
wpe|10|0.20958089 -0.06060825 0.36563171 0.12916029 -0.13282209 0.22976000 0.00401693 -0.28790374 -0.26532552 -0.32126629 -0.49287635 0.05205631 0.54019499 -0.34486979 0.24730058 -0.08372546 0.07565579 -0.28579681 0.04727774 0.06631178 0.20416514 -0.30261366 0.21747376 0.34427930 0.08920459 -0.42229165 0.13777798 -0.41322016 0.12420975 -0.15784857 -0.50227050 -0.16669108
wpe|11|0.28122800 -0.10131402 0.33297179 0.08615311 -0.13374718 0.17344564 0.29182496 -0.37182745 -0.30456340 -0.38199014 -0.45202848 -0.04761044 0.57125968 -0.39018658 0.14286500 0.03531892 0.05833804 -0.29051758 0.18020503 0.04268665 0.27517797 -0.34847104 0.21615686 0.26249831 0.02758618 -0.10746716 0.16005827 -0.29789324 0.37448987 -0.07749973 -0.33741154 -0.15688647
wpe|12|0.29207652 -0.14330421 0.27604836 0.02742003 -0.14405278 0.25564880 0.02926797 -0.28527976 -0.25353524 -0.28449398 -0.46154597 -0.02864385 0.45835652 -0.45192984 0.03906660 0.11221028 0.09918152 -0.21656699 0.21540573 0.03253350 0.29784779 -0.14989272 0.21227187 0.35369658 -0.08194458 -0.21682990 0.11324939 -0.38025662 0.17767805 -0.13502849 -0.34409847 -0.17157653
wpe|13|0.16139778 -0.15180587 0.36083911 -0.15604651 -0.00573706 0.17420669 -0.19575164 -0.25957817 -0.25017056 -0.24186265 -0.41724684 0.11398215 0.40012403 -0.25783768 0.17523250 0.04729780 0.10265953 -0.01345346 0.05845968 0.22487933 0.51568824 -0.19185259 0.16342006 0.45334980 -0.00284982 -0.27005177 0.12429045 -0.34933531 0.18224090 -0.06897104 -0.41939412 -0.05804080
wpe|14|0.22092060 0.05885476 0.16262186 -0.06859279 -0.15467340 0.58046591 -0.19252140 0.13338965 -0.30048283 -0.09339056 -0.34153468 0.18110928 0.35629965 -0.25169674 0.24962027 0.13924812 -0.19743536 -0.12666249 0.06405432 0.11413505 0.48979536 -0.35906209 0.11652845 0.47502270 0.17039062 -0.12569008 0.08909249 -0.35531944 0.34312157 0.01288999 -0.25714948 0.28266506
wpe|15|0.35138602 -0.04710114 0.14280603 0.28430555 -0.19565260 0.21781936 0.37313780 -0.20145325 -0.11024483 -0.15830565 -0.42759759 0.20385385 0.40036538 -0.16828501 -0.00966142 0.22921854 0.01448679 -0.22308085 0.02155845 0.16486765 0.50943605 -0.23789281 0.15487456 0.04317243 0.03645967 -0.07369706 0.06186959 -0.20745216 0.29242636 -0.09151687 -0.34206677 -0.08013536
wpe|16|0.08649127 -0.00794430 0.13550767 -0.06401848 -0.03318932 0.23462962 0.24226237 -0.17909895 -0.04278350 -0.22675622 -0.33426612 -0.16134200 0.43845920 -0.41945473 0.10300883 -0.05020231 -0.13316163 -0.15781749 0.34520481 0.05933401 0.37550338 -0.24779946 0.14618394 0.29744346 -0.08379528 -0.07145250 0.14620816 -0.20979073 0.14191659 -0.15158210 -0.22138874 -0.12683150
wpe|17|0.06415944 0.19451098 0.19313168 0.20509393 -0.03580635 -0.05704048 0.30082742 -0.21971367 -0.05416919 -0.06060126 -0.48791623 0.01500770 0.27778116 -0.02044981 -0.05402856 -0.19153315 -0.11414381 -0.28198366 0.08149370 0.02516885 0.28359930 -0.17254942 -0.00418692 0.17339157 -0.03833887 -0.30660302 0.31355032 -0.10151390 0.13210199 -0.06052746 0.03314987 -0.18976115
wpe|18|0.16364697 -0.12160887 0.13717241 -0.01145566 -0.08330342 0.10323569 0.30094322 -0.08640932 -0.05914960 -0.20171262 -0.23836376 -0.17791977 0.46015598 -0.26109903 -0.02473332 -0.03219712 -0.00347530 -0.20554646 0.12386713 0.08368100 0.13797452 -0.29496547 0.04817061 0.07161426 0.10091325 -0.06723774 0.09297679 -0.17098799 -0.03858755 -0.22894150 -0.34177202 -0.15746302
wpe|19|0.07178764 0.03376678 0.05021797 0.08073964 0.13149576 0.30807307 0.28707423 -0.11954284 -0.26568606 -0.06339445 -0.18348078 0.08688827 0.51260686 -0.22394073 0.11259750 -0.07180941 0.04128313 -0.11100370 0.22393382 -0.02087941 0.37099437 -0.35218750 0.03406154 0.24459502 0.16947032 -0.22625976 -0.03881058 -0.22226603 0.07271648 0.07061097 -0.23795242 0.07885607
wpe|20|0.12913893 0.00030946 0.14115681 0.01837599 -0.09420957 -0.03456604 0.50740191 -0.05415967 -0.11603955 -0.13956871 -0.18812381 0.07425687 0.48108523 -0.10154193 -0.19656607 -0.13651385 0.18823922 -0.13475827 0.17726264 0.19010326 0.23187392 -0.27176438 0.06408511 0.03863057 0.02944970 -0.08485001 -0.01805369 -0.21582438 0.00754354 0.14689705 -0.34656044 -0.10003092
wpe|21|0.08891289 0.12455672 -0.01252345 -0.10029313 0.01553619 -0.01714838 0.23001714 -0.06435245 -0.00800653 -0.12229357 -0.27133182 0.03630313 0.25277931 -0.38595576 -0.04178975 0.02871449 -0.02891296 -0.07294019 0.02740569 0.06025435 0.08481277 -0.20739054 0.17364376 -0.07673156 -0.06075876 -0.09403643 0.03221116 -0.27661590 0.06016471 0.00082891 -0.37290560 0.01031214
wpe|22|0.03085116 0.12961465 0.04371899 -0.06879505 0.14169576 0.05908531 0.43909385 -0.21824566 -0.20081409 0.03147732 -0.15431646 0.02362118 0.35742192 -0.20219847 -0.09951275 -0.07619297 -0.12020190 -0.12604341 0.14937061 0.00631953 0.07358871 -0.23538942 0.08981005 0.22484961 -0.01688717 -0.05084531 0.02662140 -0.18024581 0.12006151 0.07631203 -0.28741580 -0.04855525
wpe|23|0.22754884 0.17792507 0.02567918 0.09211058 -0.15271720 0.06883434 0.19325361 0.08465306 -0.02317592 0.07201304 -0.27651490 0.16987795 0.30210742 -0.28081057 -0.08569353 0.08743171 -0.05414530 0.00425152 -0.08115925 0.18590989 0.16350770 -0.28542894 0.05739459 -0.05377555 -0.00510887 -0.00795216 0.03824700 -0.10587040 0.07372002 0.15649217 -0.25522762 0.08826542
wpe|24|0.09316693 -0.02367303 0.00848052 -0.23180718 -0.00652932 -0.00074403 0.27867434 -0.18196098 0.15167343 0.11751111 -0.16544249 0.05647951 0.17997615 -0.08808248 -0.14391718 0.04232373 -0.14536632 0.01313386 -0.02736776 0.15451866 0.30038710 -0.19038372 0.05600228 -0.00927049 0.14957605 -0.14733805 -0.06182957 -0.20602497 0.11068363 0.15635351 -0.32170296 0.11918772
wpe|25|0.07809771 0.08822918 0.16242159 -0.03309821 -0.08545686 -0.02667089 0.05975438 0.04058268 -0.10757110 0.24478020 -0.16327964 0.05846093 0.06899989 -0.17251042 -0.23079568 -0.20477851 -0.08661830 0.08755663 -0.09663744 0.05832272 0.18615050 -0.33078170 0.02758181 0.06297763 0.17617659 -0.19154757 0.15340937 -0.09866443 -0.04519567 0.07489916 -0.20024185 0.17225333
wpe|26|0.14358644 0.08301510 -0.07376444 -0.08066115 -0.01387654 0.00132678 0.13623675 -0.02021018 0.24054191 0.03255679 -0.23137344 0.03312558 0.42425315 -0.09813185 -0.13217858 -0.11678933 0.08338442 0.07311507 0.04047097 0.10936707 -0.01801699 -0.12591337 -0.02273648 -0.21588337 -0.08496288 0.03306930 -0.16050269 -0.04439273 -0.15275444 0.10025177 -0.36233446 -0.15540686
wpe|27|-0.04387487 0.05760734 0.21870972 -0.14490163 0.04765272 -0.12541550 0.00089594 -0.19554314 0.03560720 0.34116830 -0.10091683 0.19697954 0.27710505 -0.07952429 -0.18926321 0.01706164 -0.33030295 -0.05089317 -0.21460758 -0.03403849 0.06715835 -0.22238671 -0.17195151 0.13311212 0.01995505 0.00292597 0.05604152 -0.01485044 -0.07710922 0.06389780 -0.22914184 -0.01378695
wpe|28|0.01770715 0.30758641 0.02674344 0.03186950 0.07780930 -0.12014534 0.11334510 -0.24308456 0.18896501 0.05037865 -0.17279906 0.13322721 0.12926392 -0.05306018 -0.13386395 0.05005295 -0.25766441 0.02709888 -0.22813230 -0.01860505 0.00107375 -0.19327574 -0.05079018 -0.08188722 -0.12907066 0.09431868 -0.12996200 -0.00859342 -0.12908276 0.08955179 -0.14635557 0.12009778
wpe|29|-0.03372332 -0.01827218 0.04601408 -0.03950638 0.02869690 -0.03605077 0.25080852 0.10765681 0.11303725 0.11766064 -0.05823234 0.12914223 0.30631252 0.05166409 -0.38496529 -0.17310039 -0.09815216 0.03981978 -0.05732155 -0.02654876 0.07694464 -0.21786335 0.04361924 -0.14896956 -0.10365666 0.03904295 -0.00384731 0.05720516 -0.18477012 0.00599123 -0.30704801 -0.22067636
wpe|30|-0.02143988 0.19084842 -0.03888566 -0.01992955 0.25330866 0.06017036 0.31182854 -0.01053166 0.13473469 0.29251086 -0.12541799 0.10678818 0.20397508 0.08421449 -0.16345610 -0.06565216 -0.20917111 0.25430613 -0.02583286 -0.07949315 0.01234994 -0.25773219 -0.12054656 0.01041300 -0.01024462 0.02119571 0.06215535 0.01360403 0.16021329 0.21783307 -0.17734391 -0.20465139
wpe|31|-0.00329320 0.05137157 -0.06793049 0.08698679 0.19354586 0.02090710 0.36217063 -0.19512691 0.14399176 0.17950688 -0.05940213 0.17720047 0.07430493 0.01499491 -0.25750488 -0.12609828 -0.26948669 0.17917519 -0.04879299 0.01237887 0.07374866 -0.17062833 -0.10580962 -0.13800821 -0.05672026 0.08374346 -0.03369901 -0.01994489 -0.11500190 0.23944615 -0.11202531 -0.13378407
wpe|32|0.06045116 0.11420925 -0.15537551 0.04015571 0.11211680 -0.13275440 0.31923825 0.03846840 0.05257682 0.31260611 0.00821711 0.11691015 0.21403436 -0.31635101 -0.15978938 -0.30655645 -0.20737309 0.31697034 0.08225121 -0.01175357 -0.00528905 -0.27732505 0.06918975 0.06056326 -0.12019181 -0.02934964 0.15267623 0.22151356 -0.01894928 0.33797919 -0.21815176 -0.07820066
wpe|33|-0.03634880 0.10275174 -0.02715383 -0.01380995 0.11114881 -0.00350411 0.40930183 -0.17070928 -0.01141862 0.23173207 -0.21226392 0.09697739 0.15328446 0.09774433 -0.27845461 -0.19864437 -0.24459821 0.25738908 0.00522221 -0.04182986 -0.08137539 -0.07001371 -0.06322723 -0.11026924 0.00376886 0.23185216 0.01755412 0.12995996 -0.11286492 0.27902214 -0.21744642 -0.03678551
wpe|34|0.01866507 0.00083222 -0.20267564 -0.20822470 0.12974963 -0.02846805 0.19189378 -0.18199423 0.28008262 0.23138898 -0.15632305 0.18022733 0.02146464 0.05174203 -0.46393157 -0.00319769 -0.28405169 0.25624168 -0.05432113 0.13956230 0.04140321 0.03406103 -0.15531152 -0.24502453 -0.20285268 0.12674549 -0.16488864 0.04034672 -0.13608091 0.33342818 -0.17694126 -0.07124203
wpe|35|-0.04534003 0.04543348 -0.25763372 -0.00910353 0.03020552 -0.07299006 0.23915814 0.09069095 0.20422439 0.25540285 -0.11231521 -0.03241006 0.08599771 0.14711036 -0.40173848 -0.14047869 -0.11547265 0.38429940 0.03801701 -0.01792977 0.03964547 -0.05808887 -0.02103275 -0.29501097 -0.03369366 0.07515050 -0.08001028 0.15383627 -0.12306930 0.21848607 -0.09528735 -0.03325383
wpe|36|-0.12653046 0.26955413 -0.15116333 -0.17582115 0.10177392 -0.04456709 0.15765886 0.05196197 0.07350875 0.28766430 -0.02776386 0.14310376 0.12070224 0.08290259 -0.38338767 -0.02518009 -0.52018821 0.18147261 -0.12367379 -0.06632424 -0.00542041 -0.06533918 -0.12955649 -0.33033411 -0.03786690 0.22055916 -0.13874138 0.27365619 -0.23707460 0.18076657 0.02116919 0.14209568
wpe|37|-0.11127200 0.25896051 -0.27084982 -0.08188724 0.09863233 -0.12016958 0.26735280 0.11619778 -0.03148113 0.19948339 0.09504925 0.08139078 -0.01892244 0.05956532 -0.24953904 -0.08488250 -0.46543562 0.37432532 -0.10847463 -0.07210565 -0.06361353 -0.06110970 -0.04250033 -0.26006105 -0.23312976 0.22435154 0.02215687 0.16840717 -0.15037431 0.27685116 -0.05391288 0.06622751
wpe|38|-0.12835963 -0.07248089 -0.05501030 -0.26337020 0.01595897 -0.12893605 0.20936577 0.06857341 0.05870046 0.36084267 0.09597051 0.11979225 0.03980424 -0.02735455 -0.44490780 -0.11922096 -0.25376350 0.35951621 -0.03748340 0.13418257 -0.24821374 -0.00504239 -0.15180269 -0.26039983 0.02314025 0.30709393 -0.04576669 0.09005690 -0.21540807 0.32649559 -0.28960612 -0.10559800
wpe|39|-0.01493574 0.10277498 -0.39915001 -0.01427251 0.16212903 -0.18538963 0.09627397 -0.07325491 0.17554539 0.30112480 0.18485520 -0.01104366 0.04417577 -0.04210581 -0.34834687 -0.16410883 -0.21119528 0.40225625 -0.22286721 0.00239349 -0.08011504 0.01096800 -0.06683593 -0.18915342 -0.13477983 0.05887451 -0.13043057 0.27314642 -0.18441226 0.34829653 -0.02130416 -0.01969889
wpe|40|-0.06510184 0.16234849 -0.38849825 -0.05051437 0.14625253 -0.07311763 0.24603560 -0.04468600 0.10210150 0.39602660 0.06047082 -0.03407864 -0.02560234 0.05016673 -0.33439793 -0.13111160 -0.15922564 0.48268432 -0.01430975 -0.05815668 -0.21024274 0.01893295 -0.16672030 -0.10623610 -0.13703173 0.20040081 -0.08653670 0.13076826 -0.17207165 0.33703463 -0.28270997 -0.15147372
wpe|41|-0.10772554 0.15136322 -0.36627516 -0.15452205 0.16619564 -0.01238187 0.06743431 -0.17189399 0.11592935 0.43179626 0.14625257 -0.00080051 -0.09998406 -0.08151119 -0.40706865 0.03822795 -0.19215989 0.41605369 -0.06270173 -0.07043119 -0.13935970 -0.03116996 -0.16738738 -0.22560164 0.09715142 0.29606397 -0.08075366 0.29230831 -0.29139286 0.27946565 -0.17616000 0.02287627
wpe|42|-0.14455590 0.18711344 -0.34804773 -0.09379499 0.20233738 -0.11020590 0.20160062 -0.02249459 0.16939180 0.41111728 0.10097144 0.09042971 -0.10749934 -0.01260955 -0.49287885 -0.09255077 -0.28242575 0.49732765 -0.15029666 -0.13386168 -0.13953774 0.03404498 0.00615390 -0.34218322 -0.10456888 0.21667920 -0.14431930 0.30821047 -0.17639529 0.31657653 0.10557088 -0.13914514
wpe|43|-0.04742774 0.23650295 -0.27920061 -0.11252788 0.19274280 -0.14925149 0.10918111 -0.01697926 0.16181785 0.53311183 0.02569752 0.01116124 -0.25005544 0.05715531 -0.51627522 0.00834427 -0.21376505 0.53854112 -0.04979713 -0.24608956 -0.26613705 0.05600696 -0.09025111 -0.26306903 0.04157693 0.23560796 -0.06708966 0.28599162 -0.27246437 0.32530418 0.06785592 0.10203570
wpe|44|-0.27635106 0.15466241 -0.45729323 0.07295216 0.19084481 -0.04652947 0.14914485 -0.06901606 0.16201437 0.50823108 0.22278275 0.03536092 -0.17073058 0.07156222 -0.44970574 -0.06324254 -0.30474243 0.49970260 0.00393889 -0.10571531 -0.11641633 -0.00975818 -0.22380510 -0.30099892 -0.00893755 0.28716678 -0.28840425 0.16832184 -0.30815861 0.38311554 -0.02868229 0.15468171
wpe|45|-0.00531364 -0.00895757 -0.30355787 -0.13208012 0.14592917 -0.01546484 0.00986016 0.13942196 0.15466685 0.49787837 0.20610530 -0.11723691 -0.11252384 0.01085596 -0.45582647 -0.11903948 -0.22664802 0.69663042 0.12470141 -0.24000198 -0.35214335 -0.03187033 -0.07217634 -0.21355074 -0.03046932 0.29316898 -0.06962176 0.29624952 -0.47996128 0.35449453 -0.18950567 0.14860611
wpe|46|-0.19775934 -0.01332938 -0.42988799 0.02321596 0.26135114 -0.08782293 0.01653246 -0.01060733 0.07034718 0.53363031 0.16724557 -0.10193343 -0.22205769 0.14916880 -0.47671209 -0.13658972 -0.37147224 0.58452212 -0.31149577 -0.04696518 -0.21596496 0.13120149 -0.22263592 -0.33254534 0.16431774 0.20352273 -0.10440735 0.37753874 -0.38336867 0.31207367 -0.07834514 0.18312532
wpe|47|-0.19762795 0.10883442 -0.32359375 -0.10986261 0.12727060 -0.10916567 -0.00343468 0.18344079 0.22815874 0.66753620 0.19332791 0.04041750 -0.22100384 0.13902626 -0.47928946 -0.02761043 -0.35451335 0.55061105 -0.11150876 -0.09905741 -0.21074942 0.00701410 -0.30652770 -0.27101040 0.16308990 0.27764765 -0.17035529 0.49374344 -0.41146539 0.34008731 0.00960026 0.16307446
wpe|48|-0.09573697 -0.15929172 -0.59062144 -0.33150808 0.20021418 0.08727152 0.02333392 -0.02715505 0.23164260 0.41477654 0.26571577 -0.04658151 -0.17332137 0.31377009 -0.53342228 -0.05085835 -0.23399501 0.77120202 -0.15721409 -0.05683734 -0.18034031 0.04733093 -0.31994190 -0.34178139 -0.07731130 0.37445907 -0.24596793 0.43133979 -0.54088585 0.33762467 0.01644682 0.11220927
wpe|49|-0.19035786 0.24439904 -0.34343580 -0.17696531 0.25228488 -0.11484409 0.03992876 -0.05989165 0.17058188 0.74318957 0.30592674 -0.04791732 -0.34626506 0.21029113 -0.52688180 -0.06931265 -0.29578174 0.54327978 -0.11375738 -0.20028309 -0.31573189 0.14603722 -0.33162900 -0.29313035 -0.08610771 0.33697586 -0.03498954 0.37623095 -0.50070576 0.34238309 0.05944852 0.05359380
wpe|50|-0.23397204 0.17874471 -0.38055675 -0.26761835 0.21897775 -0.18502747 0.15991779 -0.01289623 0.10612918 0.69196400 0.29162203 -0.00033415 -0.21004175 0.37803880 -0.58563525 -0.11580230 -0.24576794 0.70773433 -0.07575307 -0.15764882 -0.33193381 0.15582830 -0.36564837 -0.46717795 0.09278715 0.38853633 -0.14204991 0.45106259 -0.46346020 0.49341718 0.02984550 0.11476077
wpe|51|-0.11438081 0.02558951 -0.43346832 -0.05098778 0.29113206 -0.17829937 0.05558702 -0.00924161 0.15140167 0.63167730 0.45208156 -0.07519785 -0.29778016 0.14935391 -0.51973072 -0.19314683 -0.20101586 0.75468375 -0.26529536 -0.14904872 -0.37454017 0.03183973 -0.33299176 -0.42546103 0.02956982 0.34138711 -0.12370280 0.52650902 -0.51491368 0.42060486 0.04441110 0.07750879
wpe|52|-0.25864067 -0.00509269 -0.53806692 -0.17239304 0.35466287 -0.05261807 0.12904378 -0.04886804 0.11320545 0.62584889 0.41015773 -0.03200982 -0.14546930 0.25483635 -0.49609336 -0.20218051 -0.26997828 0.79128459 -0.13811559 -0.13971788 -0.41822169 0.11729759 -0.41422411 -0.30570104 0.08793509 0.49105859 -0.26026910 0.49963207 -0.53291064 0.41766723 0.04132488 0.02460966
wpe|53|-0.18019401 0.05344539 -0.56131162 -0.11175275 0.27657164 -0.04108696 -0.05913069 -0.06287173 0.26647212 0.67025872 0.44441095 -0.20125550 -0.24888285 0.38806825 -0.55176688 -0.15449347 -0.22442365 0.84556374 -0.14360353 -0.30193162 -0.41503268 0.16169867 -0.37828740 -0.39175046 0.07707862 0.37009794 -0.19195846 0.50305545 -0.52272595 0.49162605 0.08049061 0.15539202
wpe|54|-0.26778988 0.06861032 -0.71973248 -0.09186746 0.31276616 -0.05025495 0.00251604 0.06919024 0.15467544 0.74101860 0.45338755 -0.13278128 -0.17643134 0.38267757 -0.46624741 -0.22268943 -0.26334299 0.86545332 -0.13561059 -0.14887821 -0.50789067 0.26776402 -0.38759007 -0.40478781 0.11104627 0.45629337 -0.24216587 0.55736764 -0.53517452 0.43605864 0.10694598 0.17712896
wpe|55|-0.24097488 0.11199556 -0.58434892 -0.09079249 0.17412292 -0.07099996 0.01177927 0.01763693 0.14191420 0.79493196 0.50849303 -0.21069229 -0.41376256 0.38624686 -0.40012962 -0.06468792 -0.23293364 1.02312858 -0.10150825 -0.18975531 -0.45357863 0.21484176 -0.31757266 -0.27565585 0.03658530 0.50266682 -0.14648019 0.70969708 -0.53465762 0.34745492 -0.07099449 -0.03637552
wpe|56|-0.19836371 0.08028868 -0.70436133 -0.16167961 0.39845576 -0.21449841 0.05257622 0.02628431 0.19742666 0.81183987 0.48284947 0.05300516 -0.24222117 0.22277348 -0.55591049 -0.33729458 -0.18803856 0.87305068 -0.20312009 -0.23015311 -0.52779532 0.19372337 -0.42362132 -0.29815279 0.00583953 0.50335532 -0.12103712 0.70696777 -0.57323218 0.49577893 0.08672957 0.05705516
wpe|57|-0.28746273 0.01315997 -0.75253865 -0.07453397 0.21082521 -0.13552561 -0.03764063 -0.02194244 0.25065890 0.83838088 0.52856908 -0.09137359 -0.37434532 0.09981016 -0.56735284 -0.25053971 -0.32899986 0.82552116 -0.25821582 -0.10964913 -0.43787725 0.30475199 -0.51218003 -0.36018123 0.04269183 0.71988590 -0.13216103 0.75633042 -0.66668930 0.54203853 0.05270122 0.11068426
wpe|58|-0.24335591 -0.02620735 -0.80148991 -0.11539768 0.28222490 -0.24969215 -0.09199747 0.04072661 0.25634827 0.81236187 0.60330962 -0.04642301 -0.48965988 0.34788043 -0.52679869 -0.12114259 -0.27476620 1.02267600 -0.13488035 -0.19497727 -0.37431232 0.38633272 -0.42108117 -0.33610049 0.01508446 0.64136174 -0.18587790 0.66089322 -0.68830734 0.53240712 0.11851394 0.12254123
wpe|59|-0.19616321 -0.04466936 -0.80144537 -0.19283165 0.30089358 -0.14618681 -0.02158405 0.12769757 0.16545470 0.92384516 0.71786418 -0.00914389 -0.50928344 0.27353603 -0.62961085 -0.22419170 -0.23848357 1.00002272 -0.14221254 -0.25429162 -0.53367287 0.24757231 -0.39165817 -0.34822186 -0.00862113 0.73551893 -0.07092647 0.63387109 -0.68797925 0.36312043 0.07012127 0.28257412
wpe|60|-0.16171874 -0.10197365 -0.65274171 -0.19813561 0.39265446 -0.31536931 -0.05696314 0.21443481 0.08977648 0.95220344 0.62912353 0.00817901 -0.46119295 0.33978623 -0.51239734 -0.23101538 -0.09487851 0.92557182 -0.07992780 -0.40227210 -0.54933044 0.15318708 -0.34591079 -0.44035336 0.15507645 0.86947679 0.02118828 0.80056732 -0.74830081 0.46644646 -0.06580675 0.03642823
wpe|61|-0.19432398 -0.02273039 -0.82185966 -0.24580454 0.41929574 -0.28793132 0.00716230 0.04173153 0.17604235 1.01029590 0.72474017 -0.02024322 -0.42955535 0.37521961 -0.72945863 -0.20383681 -0.15846601 1.00005969 -0.07973074 -0.40851115 -0.59570895 0.27466825 -0.46585821 -0.37269661 0.09743100 0.67538795 -0.02876572 0.64026588 -0.81315618 0.45212805 0.00401609 0.09951253
wpe|62|0.04568318 -0.00305308 -0.79463763 -0.21410818 0.50802110 -0.24403134 -0.13677320 -0.10321230 0.16914688 0.86768673 0.77814009 0.12484067 -0.47399373 0.53051711 -0.78172669 -0.24585291 -0.22015544 1.04434742 0.03122274 -0.31854384 -0.37591470 0.29899389 -0.46007820 -0.55764615 0.25224376 0.78587036 -0.03488572 0.67048019 -0.88971633 0.56576664 0.36904285 0.22640061
wpe|63|0.04862383 -0.21278861 -0.32677521 -0.54468387 0.21024909 -0.19315967 -0.11533028 -0.45709142 0.43463925 0.22152503 0.57495547 -0.27950119 -0.13785741 0.56170370 -0.41728927 -0.49156859 -0.22276837 0.51897398 -0.06173743 -0.27885693 -0.19617702 -0.26527376 -0.18705034 -0.30597436 0.30809400 0.46310385 0.03059300 -0.00921237 -0.84420800 0.09527493 0.18216747 0.09918071
lm_head|0|0.00783714 0.19578777 0.10381309 -0.34275984 0.14913004 -0.09458093 -0.21251387 0.35253600 0.22109678 0.57633646 0.44002120 0.44917135 -0.49052479 0.61580124 -0.34862498 0.28248824 0.14145973 -0.61645213 0.67234508 0.05959753 -0.30490896 0.41337320 -0.25522726 -0.09198773 0.04257388 0.33976475 0.03508033 -0.49859412 0.76838464 0.12422598 -0.33309779 -0.33784233
lm_head|1|-0.02892011 0.12805046 -0.10222137 -0.52024555 0.47920715 -0.29107935 -0.46888527 -0.24909638 0.02388099 0.00799718 0.53506622 -0.10376275 -0.63328907 0.46590718 -0.06436072 0.21208731 0.29786911 -0.35485590 0.07784246 -0.51557053 -0.11621263 0.09436691 0.27943807 0.00979068 0.18296757 -0.10560419 -0.19813470 -0.38893562 0.16094000 0.25501303 0.57677723 0.09917079
lm_head|2|-0.44990782 -0.02429040 -0.05856972 0.10150329 -0.02014814 0.23073780 -0.20807230 0.24046309 -0.07873898 0.21598910 0.14030089 -0.32660087 -0.24366544 0.33872358 -0.35218944 0.17965521 0.47833579 -0.20211498 -0.15693808 -0.38598300 0.25287821 -0.11183241 0.32659843 -0.30073497 0.10432265 0.35987354 0.14500042 -0.03739889 -0.45875022 0.28385620 -0.32692763 -0.21792203
lm_head|3|-0.39575470 -0.00301310 -0.02208020 0.03568191 0.05292324 0.24428314 -0.14515083 0.27487250 -0.00613045 0.25765351 0.30906668 -0.37570243 -0.29991412 0.31580959 -0.45047038 0.01369968 0.33695949 -0.16711746 0.02850683 -0.30364295 0.15101174 -0.04339040 0.36828453 -0.26945661 0.03923883 0.21458652 0.05516021 -0.02610812 -0.33985582 0.19056136 -0.26900332 -0.18709819
lm_head|4|-0.64770384 -0.28016995 0.44047553 -0.13095880 0.41330645 0.03596936 0.35730251 -0.23818790 -0.03137488 0.43840206 0.23335171 0.49343174 -0.37551490 0.74342181 -0.60848322 0.49140650 0.43157912 -0.52245480 1.06499117 -0.34014994 -0.69925619 0.01292120 -0.06873347 -0.37975292 -0.06835323 0.17380073 0.49181730 -0.55681869 0.94915575 0.50021404 0.16264536 -0.07104688
lm_head|5|-0.26925665 0.46179228 -0.24283357 0.12503489 -0.30954059 -0.36489484 -0.21269393 0.15306649 0.02843993 0.33395742 0.28650012 -0.31265490 -0.47208085 0.47722783 -0.42273023 0.42117657 -0.17087007 -0.30591976 -0.18636176 0.35196610 0.64987016 0.37185779 -0.51191331 0.19914288 0.00531848 -0.09437668 0.06254354 -0.19886692 0.45282975 0.31194482 -0.07427889 -0.68665016
lm_head|6|0.01364426 0.19083743 0.10655010 -0.34273388 0.14352255 -0.09187171 -0.21655656 0.35073187 0.22689461 0.58422767 0.44405482 0.45302411 -0.49010483 0.61414595 -0.34661632 0.28448881 0.14404208 -0.61874567 0.67903122 0.06309517 -0.30501550 0.41622095 -0.26395321 -0.09219097 0.04406874 0.34511689 0.03104258 -0.49547194 0.77110893 0.11825856 -0.34206817 -0.34062818
lm_head|7|-0.01851337 0.12306186 0.02337358 -0.26786112 0.01747397 0.30669845 -0.51475544 0.21713957 -0.32861159 0.16450691 0.20058029 -0.13810502 -0.43876348 -0.14303291 -0.25839898 0.41105077 0.44249318 0.43786304 -0.35195061 -0.07701047 0.10774815 0.18189754 0.18643973 -0.18393380 -0.14987604 0.20894690 0.19900622 0.02162065 0.41011566 0.12217620 -0.20746186 -0.35772454
lm_head|8|0.01163218 -0.02719962 -0.02061981 -0.10491213 0.15598838 0.20775947 -0.37451721 0.27915739 0.09390512 -0.10204908 -0.00436632 0.15391754 -0.32918262 0.08564617 -0.23655366 0.46939246 0.40506405 0.26575521 -0.45360049 -0.27983681 0.37761057 0.20054978 0.38180647 -0.29650668 -0.12277184 0.23362845 -0.01374690 -0.27754504 0.37209212 0.23046346 -0.19851150 -0.34214967
lm_head|9|0.13598621 0.07926542 0.01697081 -0.18651421 0.05010256 0.21629701 -0.44537769 0.33774823 -0.09290813 0.00570469 0.18701354 0.13055866 -0.31622280 -0.15177764 -0.32965770 0.54202917 0.46973593 0.20785516 -0.38431309 -0.27746647 0.20565193 0.04887222 0.21575586 -0.20813582 -0.24672962 -0.05002959 0.15567328 -0.11928766 0.33362538 0.22167924 -0.20098350 -0.45761497
lm_head|10|-0.22827541 0.15165873 0.05117799 -0.30177418 -0.00515064 0.35131933 -0.29032301 0.33281554 -0.02070155 0.08862031 0.06029691 0.16364244 -0.43554257 -0.00917571 -0.19591748 0.41321216 0.36107006 0.37874939 -0.44230591 -0.26786734 0.36034324 0.22681761 0.21044159 -0.34955605 -0.04670542 0.28013777 0.05448588 -0.24759680 0.38735830 -0.01914550 -0.14911941 -0.33693249
lm_head|11|-0.17596855 -0.23683455 0.38264091 0.36520907 0.35536274 -0.04203517 -0.03130166 0.31271547 -0.23051168 0.05241280 0.06245353 0.11163881 0.32832779 0.19559155 0.45550722 0.10305541 -0.11718778 -0.02174935 -0.26805120 -0.00129195 0.04751705 0.47434762 -0.32246904 0.16597493 -0.01425588 0.14606998 0.46668794 0.04956167 0.05336025 0.03368301 0.22084289 -0.20302807
lm_head|12|-0.13808215 -0.40865706 0.42050101 0.21917142 0.27618543 -0.09882533 -0.05720372 0.16507407 -0.04510103 -0.09780287 -0.12065978 0.17786634 0.29904446 0.50036169 0.29527172 0.24930418 -0.36197530 -0.24844657 -0.34796680 -0.15936425 -0.03151335 0.34213794 -0.23924995 0.13046474 0.05844572 0.20226552 0.05957705 -0.08412786 0.06994597 -0.00526121 0.09405746 -0.29898184
lm_head|13|0.01656815 -0.32591625 0.22988103 0.24542502 0.33786644 -0.30350606 0.00347462 0.38499268 -0.33771743 -0.29448535 -0.05056123 0.08257439 0.38551225 0.26447515 0.18661601 0.32403887 -0.11125344 -0.07590844 -0.11985607 0.01013845 -0.13218002 0.31044796 -0.34012518 0.33473927 -0.00963474 0.18995949 0.27809362 -0.01870853 -0.02484407 0.00970136 0.04363853 -0.36703883
lm_head|14|-0.31918545 -0.33540045 0.31411645 0.13499729 0.24230266 -0.32755843 -0.04234891 0.24345551 -0.41722594 -0.16596097 -0.01446653 0.15583526 0.28584576 0.20048544 0.26703117 0.22507377 -0.22569273 -0.07616824 -0.02879065 -0.11217384 0.17457172 0.57612947 -0.26948144 0.30108707 0.11865943 0.36381979 0.14645155 -0.03392583 0.02103437 0.15314220 0.21846117 -0.26226330
lm_head|15|0.38015764 -0.19848478 -0.08109050 0.03398924 0.16510531 0.01952572 0.31656781 -0.27570402 -0.05650073 0.08552746 -0.18910346 -0.12449053 -0.61661817 0.03290967 -0.15105653 -0.22700763 -0.30616200 -0.10981799 0.09362074 0.02023185 0.20559715 -0.01184172 -0.37671555 0.26838826 -0.37232707 -0.30206572 0.22864080 0.15650285 -0.09664232 -0.10583628 -0.19679512 -0.07080206
lm_head|16|0.36941183 -0.35313186 -0.14923176 -0.15527508 0.24581272 -0.05181349 0.18231462 -0.34974685 0.12270643 0.07925880 -0.24604418 -0.11862153 -0.72187722 -0.00360213 0.12125450 -0.09569008 -0.37747409 -0.04641989 0.08367392 0.22601271 -0.13761342 -0.18755070 -0.23033507 0.04860755 -0.17963309 -0.03474262 0.02327041 0.03627741 0.03270640 0.08830932 -0.19857668 0.03392494
lm_head|17|0.13732562 -0.40304642 -0.25492585 -0.07957424 0.24946162 -0.18635121 0.04270539 -0.36864649 -0.19643377 0.20629422 -0.29149513 -0.05384575 -0.57102454 -0.20004034 -0.02681798 -0.21424926 -0.31031585 -0.07328709 0.07685105 0.19175198 -0.26320636 -0.14138904 -0.05742819 -0.07910275 -0.28412375 -0.00173876 -0.07817836 -0.02640082 0.02193938 0.09521588 -0.16468534 0.41182823
lm_head|18|0.04921564 -0.33235706 -0.27764219 0.16556565 0.22076792 -0.31368349 -0.13989599 -0.18475780 -0.25646182 0.30775876 -0.36283672 -0.15780169 -0.49816168 -0.27467761 -0.11039264 -0.49398373 -0.26835702 -0.09791517 0.00803294 -0.01205913 0.08513734 -0.10177289 -0.17768447 -0.13122967 -0.22649404 -0.12820456 -0.14136275 -0.09340784 0.01003172 0.07253515 -0.14918183 0.26944792
lm_head|19|0.24399525 -0.14406126 -0.14522067 0.12107502 0.32025872 -0.37095337 -0.03315289 -0.33590212 -0.25755139 0.13620992 -0.16328205 -0.17255641 -0.32277726 -0.35583073 0.05436727 -0.47882159 -0.07765447 0.05990130 0.11606663 -0.02399579 0.36340302 0.06816211 -0.39526536 -0.16898552 -0.34138943 -0.16345812 -0.03304330 -0.31172881 0.08217170 0.09623842 -0.16623278 0.27465451
lm_head|20|0.47528860 0.02667268 -0.04087060 -0.19347092 0.06027443 -0.18386035 0.00867970 -0.46429877 -0.17671150 -0.07202649 -0.21939181 -0.20628462 -0.46929812 -0.30711498 0.19670809 0.05443665 -0.14747280 0.00221129 0.25985275 0.22481524 0.32878606 0.17590589 -0.28548998 -0.07244519 -0.38523267 0.00748235 0.10044874 -0.46969199 0.10123472 0.14795663 -0.06142816 0.24704309
lm_head|21|0.35536841 -0.19083471 -0.04035076 -0.42101474 -0.00124160 -0.10455041 0.17745325 -0.30623256 0.14641165 0.11776368 -0.25756938 -0.50946795 -0.39005459 -0.23992529 0.04021868 0.09280253 -0.15771862 -0.06473598 -0.06920225 0.08187306 0.00368049 0.00892271 -0.30240802 -0.04009830 -0.13173304 -0.05552835 0.22034086 -0.38702879 -0.00389888 0.01380762 -0.19483882 0.32810694
lm_head|22|0.35324255 -0.41512865 0.02510550 -0.21744848 -0.23517478 -0.29276422 0.20597566 -0.16418618 0.09920780 0.09300260 -0.20462358 -0.41224103 -0.25670773 -0.20850263 -0.13486873 -0.17786596 -0.16274564 -0.00483256 -0.20731021 0.04263186 -0.05937402 0.20165445 -0.16008125 0.03975289 -0.27030138 -0.14188232 0.27856753 -0.11958165 0.09866651 0.08718384 -0.21076210 0.30091974
lm_head|23|0.39769496 -0.29445819 -0.11525805 -0.21227376 -0.37021211 -0.14093991 -0.04675781 -0.17413509 -0.01182069 0.24068889 -0.06589881 -0.24463524 -0.30030421 0.11665172 -0.21150524 -0.37551765 -0.07758345 -0.16157443 -0.16539216 -0.03200272 0.09627569 0.09843399 -0.08040566 -0.13660976 -0.61080108 0.08392630 0.26495451 0.03584827 0.01581736 0.00605142 0.03867038 0.42610221
lm_head|24|0.18961540 -0.24360320 -0.33514262 -0.23015065 -0.16401497 -0.03300662 0.08417062 -0.39094700 -0.23614893 0.20579181 -0.28260283 -0.12811569 -0.28863373 0.25643304 0.18422854 -0.17747730 -0.02515985 -0.01531904 0.12402025 0.19011111 0.14384079 0.03051123 -0.32695800 -0.15239209 -0.62215087 0.33496201 0.21170943 -0.05449133 0.04239678 -0.34091503 0.21609688 0.13945581
lm_head|25|-0.12121623 0.36722359 -0.19054684 -0.07705998 -0.08634873 0.27840495 0.05301879 -0.34781300 0.31991707 -0.53974601 0.12438378 0.15894140 0.12823878 -0.03183523 -0.11969864 0.42560048 -0.24530872 0.22624609 0.30752341 -0.08553082 -0.39051586 0.08309762 -0.08721665 -0.11517117 0.38574855 -0.07997970 -0.19517129 -0.25313836 -0.05255899 -0.28392957 -0.00455671 -0.34243800
lm_head|26|-0.29911477 0.16297150 -0.26343533 -0.20360713 -0.22038787 0.22070941 -0.05347341 -0.30153556 0.43178238 -0.25012440 0.02866186 0.19184252 0.17814025 -0.30098496 -0.16912170 0.12731553 -0.27382892 0.25261368 0.15342808 0.06334363 -0.24230793 0.19933474 0.03844122 -0.15730467 0.36423141 -0.10821082 -0.16893894 -0.07294303 0.28943284 0.15033051 0.22049068 -0.16170444
lm_head|27|-0.28437296 0.11829700 -0.12986186 0.24393068 -0.29959654 0.04519486 -0.16530105 -0.23878311 0.25599356 -0.15957708 0.28218170 0.29311463 0.23008281 -0.30733008 -0.18307140 -0.04393375 -0.19601301 0.13894508 0.13479809 0.02865816 -0.01873158 0.01488264 0.07886543 -0.08690186 0.28294683 -0.39956843 -0.12446620 0.04610794 0.14591252 0.07955506 0.16995287 -0.06705685
lm_head|28|-0.21326310 0.13976812 -0.20568058 0.41318246 -0.20189104 0.16128500 -0.15153636 -0.22638736 0.16745052 -0.02708847 0.33038449 0.22622541 0.14227728 0.01202312 -0.18426628 0.08264617 -0.21732963 0.04486018 0.05964918 -0.00604489 -0.20329992 -0.20476294 0.20701964 0.01104773 0.37217992 -0.51380322 -0.16382658 0.16291646 0.20492186 -0.05300958 -0.07284256 -0.04657816
lm_head|29|-0.15608180 0.30190968 -0.16300185 0.35058787 -0.08593409 0.15252689 -0.12793293 -0.15892106 0.15703038 -0.11323732 0.20989926 0.48537425 0.19905416 0.19001070 -0.19194779 0.29366069 -0.11461512 0.13760668 0.08797250 0.14316834 -0.33949749 -0.25374359 0.25782025 -0.07681849 0.21734333 -0.49626170 -0.25045784 0.18284560 0.01565048 -0.31894226 -0.25905266 -0.06794601
lm_head|30|0.05162075 0.30315001 -0.17698175 0.06983455 -0.15124981 0.27827805 0.11860822 -0.30818723 -0.03185359 -0.27878041 0.00148250 0.39811165 0.18690623 0.07193851 -0.32412928 0.43710998 -0.10816867 0.30853197 0.27606172 0.24139446 -0.03440810 -0.22263743 0.31719350 0.18737376 0.14101538 -0.38687240 -0.31360361 0.01775990 0.11258804 -0.25854367 0.03819627 -0.13091085
lm_head|31|-0.08406970 0.23626921 -0.28350952 -0.29558068 -0.40000231 0.08625725 -0.00687477 -0.25837919 0.06637324 -0.14303584 -0.28819759 0.26637704 0.26377486 0.02651263 -0.12371402 0.24818533 0.01962643 0.19007328 0.34934844 -0.03496361 -0.06857795 -0.21046731 0.13341238 0.03321643 0.22602413 -0.19122467 -0.39059059 0.22668512 0.39313971 -0.10480728 0.29570280 -0.03849556
lm_head|32|-0.16022807 0.40100413 -0.23486903 -0.27860480 -0.43582042 0.19848487 -0.09751425 -0.17559247 -0.09835007 0.04779968 -0.18409170 0.32862599 0.22542872 -0.00589133 -0.17923236 -0.16081997 0.04253731 0.21781925 0.15796017 -0.19152884 -0.35188982 -0.09600402 0.06195165 0.02688659 0.36085425 -0.11532456 -0.18257759 0.02846591 0.18655306 -0.00194927 0.34516539 0.08958165
lm_head|33|-0.23895548 0.44437812 -0.30431826 -0.15223150 -0.26256840 0.12702445 -0.03841295 -0.28554633 -0.08253655 0.06897084 0.40648090 0.17290075 0.16588767 0.12700401 -0.08960850 -0.23960050 -0.05214384 0.25312577 0.14531891 0.09480559 -0.49873422 -0.03353573 -0.02536846 -0.00596843 0.31809543 -0.25218967 -0.13037820 -0.00902040 0.14247581 -0.12948024 0.33922227 0.15749903
lm_head|34|-0.10957140 0.36985361 -0.45172632 -0.34525349 -0.19824031 0.13479745 -0.03805305 -0.33040960 -0.03168992 -0.13582886 0.49861298 0.25853566 0.16420652 0.11553719 0.04019896 0.19622396 -0.00927101 0.21250330 0.23546333 0.14768986 -0.39182732 -0.23907321 0.06774069 0.21916829 0.18942857 -0.05434703 0.17468832 0.15323158 0.03302325 -0.29162315 0.13223224 -0.08837944
lm_head|35|-0.43718773 0.37384086 0.35264629 -0.14638053 0.04463717 0.05118452 0.45588194 0.33571701 0.07776479 0.12292977 0.22355325 -0.21222260 -0.36385709 -0.04676209 0.31765767 0.38079239 0.16168656 -0.38286097 -0.01993881 0.36467594 -0.29950864 -0.30437142 -0.38511681 -0.14838815 -0.34630085 -0.36521820 -0.56741208 -0.00043518 -0.30565157 0.29113488 0.07336804 -0.24529340
lm_head|36|-0.19562361 0.28858397 0.36124924 -0.40825888 0.23208634 0.11485365 0.21533693 0.15998016 0.09520894 0.02784016 0.31605098 -0.22191262 -0.37858858 0.05124317 0.33302816 0.28945782 0.00171941 -0.30608164 -0.02643098 0.22937127 -0.37933137 -0.19754428 -0.43841075 0.08813100 -0.45327828 -0.50555640 -0.42566762 0.07397810 0.57170064 0.46351377 0.02767814 -0.37291061
lm_head|37|0.15014012 -0.13934858 0.26910097 0.02826225 0.48100246 0.29548727 -0.14487526 -0.43858540 -0.01017024 0.31378917 -0.04075897 -0.12618077 -0.36643457 0.57180615 -0.33511932 0.01849930 0.95731040 -0.22971828 0.00830842 -0.31474712 -0.29504050 0.35781421 0.05249589 0.11387415 0.33951560 0.21584312 0.07791325 0.10311160 0.11525693 0.02424205 0.07288212 -0.58208070
lm_head|38|0.07116704 0.22528468 0.12574681 -0.57281987 0.44801292 0.12709952 0.00933584 0.25444120 0.25247746 -0.26428279 0.52397968 0.00685603 -0.52752243 0.65409063 -0.05510319 0.14720658 0.07033513 -0.04072795 0.30918872 0.04189701 -0.22919066 0.18242929 -0.40663165 -0.11609119 -0.13469875 0.12224336 -0.42299410 -0.12264849 -0.23271695 0.26495543 0.16120732 -0.26538835
lm_head|39|-0.16059685 0.22896504 0.25469410 -0.26762052 -0.05973331 -0.11211386 0.05721251 0.18108098 0.41329462 0.50259429 0.44860184 0.12736651 -0.48569438 0.30460473 -0.37441355 0.21403898 0.44580619 -0.46849964 0.72158634 0.13545178 -0.37467359 0.24362583 -0.53496732 -0.16324345 0.11703127 0.06180556 -0.09737970 -0.37380604 0.50033698 0.16874777 -0.10705578 -0.28018968
lm_head|40|-0.22305879 0.48631953 -0.50149899 0.04297065 -0.02278739 -0.38395462 0.35316135 0.18941141 -0.18449445 0.24322181 0.43294420 -0.26525854 -0.23953074 0.53498599 -0.37302919 -0.11056477 0.12101100 -0.64247963 0.17414991 0.18400962 0.13639349 0.56313693 0.00088696 0.44305032 -0.12037463 0.08173856 -0.22473872 -0.50900359 0.60378252 0.07312344 -0.54408980 -0.50496246
lm_head|41|-0.22126770 0.15393928 -0.29358786 -0.09754949 0.49713902 0.44067728 -0.10742466 0.35419272 0.02140980 0.14676984 -0.17966218 -0.38491202 -0.06608628 0.00639790 0.08959524 0.20917977 0.53601916 -0.36623420 -0.02056483 -0.49285151 0.14295172 0.19700298 0.27737319 -0.11763508 0.17596529 0.15160874 0.06660589 -0.03602012 0.45660532 0.11735577 -0.38110334 -0.30989714
lm_head|42|0.19986097 -0.02442035 0.16123511 -0.11144074 0.08264245 0.12094232 -0.26870820 0.38360695 -0.10003721 -0.40550319 0.30834748 0.42117581 -0.49847790 -0.02229121 -0.37810299 0.05612349 0.45071635 -0.33384413 0.05629671 -0.03483223 -0.36546935 0.31419557 0.24055416 -0.09907306 -0.24051207 -0.10018212 0.07155354 -0.24048486 -0.07257708 -0.34939385 0.46945643 -0.56793491
lm_head|43|-0.03606654 -0.16396612 -0.25470255 -0.07906024 0.33699459 -0.37386860 -0.17254420 0.35335172 -0.02047879 -0.29018283 0.57965807 0.17810861 -0.60163216 -0.15675740 -0.08085416 0.09280357 0.52269470 -0.16308651 0.23763893 -0.09943767 -0.21716356 0.04305348 -0.13991729 -0.15111685 0.20541673 -0.13569419 0.12546695 -0.21146622 0.30416874 -0.06865978 0.21544352 -0.23388102
lm_head|44|0.31707649 -0.05681348 0.02983476 -0.26919298 0.21616673 -0.07452229 -0.20587026 -0.07151014 -0.11916754 0.02358003 0.40221086 0.08187608 -0.28508420 0.00095415 -0.32872616 0.43709044 0.65761691 -0.27238872 0.20905532 0.23538867 -0.53344060 0.19413467 0.04007387 0.30381172 0.12154751 -0.12270065 -0.00049317 -0.09303078 0.42671718 0.03799366 0.45660925 -0.45115534
lm_head|45|0.03065833 0.19846374 -0.01877211 -0.11609358 0.25404682 0.11355037 0.03766573 0.29174701 -0.28754226 -0.00207567 0.13006475 -0.05195302 -0.82725166 0.21977824 -0.39492407 0.16814160 0.53573056 -0.17859136 0.24906758 -0.28324136 -0.35425019 0.13871242 -0.22152973 0.06890252 0.32080318 0.07984167 -0.14703004 0.08754866 0.26885437 -0.51836934 0.40852960 0.00170269
lm_head|46|-0.08143031 -0.00801698 0.21379973 -0.42364913 0.10573769 0.15215264 -0.07295945 0.10417845 -0.11965907 -0.02232282 0.36142689 0.17847792 -0.60775850 -0.00573348 0.29500309 0.04048476 0.61970167 -0.12988003 0.31253698 -0.14252397 -0.26478920 0.37358643 -0.15150484 -0.18721084 0.03657976 0.03178116 0.05447602 -0.28498709 0.37080668 -0.05467543 0.54820289 -0.37869604
lm_head|47|-0.10155694 -0.21604016 -0.17762280 -0.57365346 0.28152906 -0.04447091 0.11344157 0.25432426 0.36919136 -0.12274194 0.14653578 -0.14335863 -0.58465575 -0.10651665 -0.28597704 0.35646182 0.32215444 -0.27653467 0.28463382 -0.31412799 -0.35974862 0.49396464 -0.21646280 0.03172204 0.18048183 0.43086975 -0.12048241 -0.08690280 0.49805925 -0.40665729 0.37501646 -0.25041351
lm_head|48|-0.03515109 -0.03698819 -0.02558997 -0.05407866 0.36995961 0.24244574 -0.21657771 0.27918933 0.40848789 -0.02708319 0.51720948 0.16838594 -0.57704345 -0.14126771 -0.14402325 -0.09984115 0.28883170 -0.43424256 0.45300083 -0.40053545 -0.18584838 0.42118313 -0.26916866 -0.17417674 0.12126386 -0.21040311 0.25512830 -0.39556734 0.19619628 0.07291857 0.09921216 -0.23731064
lm_head|49|0.29353221 -0.33461086 0.21543838 -0.21352659 0.04746893 0.17132195 -0.09426095 0.08056279 0.27708734 0.00708198 0.31306091 0.06203085 -0.34702088 0.02126652 0.00389706 0.02065826 0.38207511 -0.28013797 -0.05217435 0.05640442 -0.06348142 0.36812221 0.12100928 -0.13813875 0.24593941 -0.07326704 -0.01148902 -0.10695185 0.44331687 0.01388854 0.35512925 -0.44315360
lm_head|50|0.09398436 -0.02552870 -0.03213462 -0.44921675 0.25396015 0.06404732 -0.21301473 0.32027759 0.13613809 0.08328096 -0.05213980 -0.24300300 -0.32993077 0.37061330 -0.28878060 0.16953546 0.44174045 -0.60371074 0.38976997 -0.24629951 -0.04837577 0.44335349 0.00392637 -0.14267699 0.29983449 -0.23212546 -0.26338080 -0.01755804 0.34366547 -0.37224489 0.34481632 -0.11091711
lm_head|51|0.23297352 -0.14420737 -0.23279500 0.05164682 0.41750339 -0.30454839 -0.41317818 0.34589555 0.61437061 0.30388228 0.25103180 0.43663663 -0.38094273 0.20149655 -0.32305568 0.64526235 0.49333593 -0.41894596 0.44342991 0.05922398 -0.18249751 0.40843616 0.00818038 -0.10159244 0.15329063 -0.38887407 -0.13414542 -0.61967507 0.29768588 0.11130363 0.21801458 -0.10276703
lm_head|52|0.22998330 -0.36092997 -0.26758715 -0.41536679 0.54303044 0.42381084 -0.16834480 0.26295777 0.14493006 0.09302477 0.43791624 0.26932139 -0.28569010 -0.23285736 -0.18359745 0.14380064 0.50892388 -0.42648847 0.58390926 -0.37029816 0.16073590 0.43610212 -0.16015160 -0.33896838 0.09546199 -0.16879238 -0.57645130 0.46099894 0.00050855 -0.16731545 0.31893163 0.07613054
lm_head|53|-0.31264274 0.34716721 0.03866728 0.13650374 0.14103197 -0.36441873 -0.53170148 0.18583130 0.15407213 -0.43996393 0.21935636 0.13399184 -0.25308396 0.15125895 -0.01547756 -0.09892033 0.39664957 0.12331419 -0.01805483 0.19692596 0.22081134 0.13839826 0.05094339 0.06678691 -0.60273948 0.24057612 -0.21663788 0.44988430 0.19546547 0.15481182 -0.12539602 0.03437177
lm_head|54|-0.46098826 0.23935859 -0.14263699 -0.31472519 0.34147090 -0.19598431 -0.39171812 -0.01406091 0.05558868 -0.41072133 0.19587764 0.55194672 -0.20212353 -0.13567550 0.14934828 -0.05467732 0.26337021 -0.38586391 -0.29843015 0.33465806 0.15569647 0.05433665 -0.20175005 0.16206678 -0.48828794 0.29213692 -0.13367382 0.27518651 -0.15306223 0.22391637 -0.38459729 -0.36577901
lm_head|55|-0.26944269 0.26849721 -0.06331960 -0.14125970 0.37056319 -0.28403379 -0.32493022 0.06501686 -0.08411153 -0.24471052 0.23844317 0.27359564 -0.13929545 -0.13357685 -0.15920887 0.08697206 0.59766137 -0.06103579 -0.32225769 0.41018338 0.05968561 0.19292857 -0.10477560 0.44463529 -0.46424220 0.02685111 -0.03702980 0.38311944 0.19862609 0.34438352 0.06292929 -0.21359694
lm_head|56|-0.08147741 0.32923903 0.21203007 -0.13459917 0.24279590 -0.31674188 -0.41242670 -0.20698173 -0.20114847 -0.09264833 0.07332738 -0.00707538 -0.27340970 0.16708632 -0.14726106 -0.12155479 0.62538542 -0.16392627 -0.28295087 0.40781694 0.12743475 0.31608159 -0.12767149 0.46870747 -0.23960126 0.07392965 -0.00329396 0.49173185 0.26594480 0.05285690 0.01610189 0.05779032
lm_head|57|-0.34975425 0.40997304 0.07296587 -0.12787257 0.22304009 -0.18655033 -0.10666903 -0.25238918 -0.11339385 -0.01446674 0.16414576 0.23770269 -0.36456847 -0.08820095 -0.34167755 -0.15560864 0.37955634 -0.25867885 -0.19528689 0.25530354 0.42355422 0.38853214 -0.15713658 0.45074238 -0.03638193 0.33615519 -0.11010164 0.45359795 0.39150467 -0.34652630 0.14716721 -0.06531543
lm_head|58|-0.54124866 0.32984851 0.09144625 -0.36762030 0.03970343 -0.11658424 -0.16453106 -0.08845857 0.33073419 -0.18061230 -0.02538360 0.25147343 -0.46449578 -0.08462251 -0.12483099 -0.10984869 0.11425195 -0.38775124 -0.36897170 0.14148191 0.19176078 0.37778427 -0.16203070 0.29675417 -0.20044980 0.41679954 -0.09079835 0.36887548 0.12150948 -0.15069173 0.18351179 -0.37599150
lm_head|59|-0.41567263 0.14387141 0.21789330 -0.31371222 0.20436273 -0.01896507 -0.08752800 -0.09500768 0.57330973 -0.44455281 0.25677611 0.05655025 -0.25019643 -0.14422977 -0.33711779 -0.06071998 0.10876900 -0.11257262 -0.29276497 0.09311359 0.15639714 0.41522257 0.13582674 0.31044371 -0.38034699 0.01563019 -0.00108067 0.27377893 0.01503404 -0.01692187 -0.09875253 -0.31340202
lm_head|60|-0.18991011 0.13592649 0.20687986 -0.36751246 0.22386345 -0.06480437 -0.28309756 -0.06287808 0.51031947 -0.15394467 0.05077787 0.17160174 -0.03636529 -0.01475201 -0.25004918 -0.24968125 0.45880606 -0.01958269 -0.28013789 0.29218294 -0.20780450 0.57839950 0.15103948 -0.06145414 -0.37007112 0.03684314 -0.00541108 0.29569367 0.31954181 0.04697191 0.01959135 -0.01710274
lm_head|61|0.09396346 0.11645075 0.21653405 -0.41133833 0.14856509 0.08353931 -0.43413554 -0.13475929 0.23818507 -0.05619834 -0.31117665 0.26262305 -0.26176266 0.34874588 -0.20592257 -0.13461842 0.44082944 -0.27665317 -0.24067755 0.25472085 -0.13052784 0.52487394 0.07948632 0.29501480 -0.23363268 0.01368705 -0.17987416 0.25604808 0.23035420 0.08347302 0.07189017 -0.31119238
lm_head|62|-0.09916551 0.01017409 -0.01606447 0.00246158 0.02510444 0.20342776 -0.31453751 -0.06548186 0.41491017 -0.15455534 -0.24046607 0.07581119 -0.15369995 0.31011416 -0.44173608 0.27583230 0.32767337 -0.28807918 -0.22697889 0.27665490 0.18353177 0.34176942 -0.17437926 0.10389046 -0.40603841 -0.31909905 -0.06716585 0.33526606 0.16269369 0.12869055 0.18924042 -0.30954469
lm_head|63|-0.20932414 -0.15105943 -0.27271674 -0.20557026 0.22959411 -0.08182089 0.23063084 0.15203825 0.16836501 -0.32087959 -0.10277181 0.15881209 -0.11260055 0.13067926 -0.41217896 0.13649029 0.26919506 -0.05895736 -0.17284810 -0.00335365 0.23005064 0.49760290 -0.12303766 -0.05172188 -0.33862687 -0.29041906 -0.14365203 0.28684998 0.05748709 0.03196232 0.06463570 -0.35952537
lm_head|64|-0.23179201 -0.15043728 -0.24122267 -0.15394376 0.37366301 -0.10653224 0.06911720 0.06748144 -0.01800401 -0.36940331 0.21455467 0.19829832 -0.42871098 0.21772513 -0.23079773 0.10511433 0.29415122 -0.08689046 0.16119075 -0.12559419 0.08843391 0.45068542 -0.20631186 0.30221661 -0.17089022 -0.23857249 -0.28267266 0.09655871 0.21721090 -0.05874760 0.05857868 -0.05525360
lm_head|65|-0.19106626 -0.08520373 -0.26928368 -0.26711155 0.27109808 -0.01244958 -0.09411672 0.09004790 -0.13063184 -0.20150408 0.40984864 0.22811253 -0.40079885 0.28166675 -0.15091764 0.10992153 0.53974555 -0.04637285 -0.01840436 0.10101255 -0.02997060 0.42252553 -0.14161928 -0.02145801 -0.01819579 -0.05857918 -0.11799512 -0.02064691 0.23433029 0.19018860 0.20614948 -0.01879169
lm_head|66|-0.08934980 -0.26007648 0.08352988 -0.19147562 0.27006688 -0.00986574 -0.09857827 -0.04475754 0.01544964 -0.20255827 0.24567118 0.28967022 -0.46322664 0.03466417 -0.29741520 0.13287268 0.41541670 -0.02461098 -0.07209419 -0.09108140 -0.25456359 0.23719709 -0.25279428 -0.02570292 0.02604478 0.02067398 -0.07638870 -0.12351105 0.21813006 0.14181080 -0.00407028 -0.15097744
lm_head|67|-0.22535416 -0.15811578 -0.12377040 -0.18256072 0.14757965 -0.04885816 0.00454308 0.14627407 -0.04152462 -0.07791128 0.34746489 0.02288569 -0.47510611 0.21899896 -0.19042615 0.13970567 0.36005326 -0.10746229 0.23220416 -0.16219213 -0.07508788 0.50470754 -0.01650557 0.00439759 -0.04607822 -0.09071424 -0.01949576 -0.08056119 0.22354169 0.16587747 0.12115845 -0.36181170
lm_head|68|-0.15989926 -0.12968949 0.12283129 -0.22200655 0.30780647 -0.10799825 -0.03363474 0.02479461 0.01946515 -0.13862967 0.34112029 0.07399316 -0.29225808 0.31594857 -0.13059786 0.18232900 0.40313880 -0.18554635 0.19538243 0.02805683 -0.07518168 0.17302185 -0.17811646 -0.01533190 0.12891557 -0.02452703 0.00302856 -0.30163627 0.35080097 0.14778171 -0.02824395 -0.07632074
lm_head|69|-0.13813527 -0.07588463 0.14067972 -0.14018156 0.17266668 -0.08375732 -0.07611210 0.04637843 0.08953301 0.13193255 0.46982686 0.18631872 -0.49795854 0.34307162 -0.17972970 0.23201812 0.39607109 -0.19466416 0.00340177 -0.05554033 -0.22190834 0.28962471 -0.21364326 -0.11984154 0.03525101 0.12174993 -0.06741752 -0.14932799 0.45455428 0.06904359 -0.08104936 -0.22605099
lm_head|70|-0.30433749 -0.08188789 0.08484080 -0.27414579 0.10486719 -0.09634902 -0.06648961 0.05459361 -0.04847610 0.06790755 0.35074957 0.05187990 -0.43188173 0.29579248 -0.22002145 0.24745488 0.21459304 -0.15513608 0.20909226 -0.06724540 -0.09944184 0.34627925 -0.10146495 0.05072090 -0.02793130 -0.06369406 0.21948420 -0.28811700 0.44344680 0.13174634 0.23664157 -0.23035680
lm_head|71|-0.01998789 0.10327104 0.04883868 -0.16699705 0.11691847 -0.03604923 -0.05067564 0.08957535 0.07268702 0.31905630 0.30138304 0.12232680 -0.55401654 0.32306746 -0.26365170 0.19327032 0.26656733 -0.20092076 0.32325461 -0.06383615 -0.21448740 0.29275555 -0.19675190 -0.01528298 0.02289391 0.06303797 -0.06768707 -0.38073757 0.49218491 0.12113414 0.00317638 -0.24449432
lm_head|72|-0.07812314 0.10017178 0.12792743 -0.38345677 0.10550200 -0.12169605 -0.06568346 0.24070175 0.28749842 0.39815158 0.48884272 0.34710401 -0.50179384 0.62121129 -0.33560514 0.18592880 0.30493760 -0.43489424 0.62703743 0.11273431 -0.28047299 0.42418414 -0.29970309 -0.15391933 0.03904034 0.24643155 0.09219816 -0.34790326 0.75173292 0.11605447 -0.28317292 -0.34512941
lm_head|73|-0.04607499 0.10932093 0.05766026 -0.37932359 0.24606172 -0.05277508 -0.09842739 0.25823924 0.12316104 0.31364228 0.45610880 0.33284253 -0.52594988 0.53282534 -0.29786210 0.15516184 0.27188679 -0.37255992 0.40272902 0.03160011 -0.15125118 0.39773983 -0.20676144 -0.09504207 0.09931980 0.16491228 -0.01734844 -0.51396961 0.62945245 0.16509810 -0.19473335 -0.28328509
layer0.attn_wq|0|-0.05817024 0.06396546 -0.02998897 0.14411111 -0.38568366 -0.11024799 -0.51724634 0.27998651 0.03900014 -0.13632183 0.39905012 0.34939269 -0.22458680 0.05323900 0.26798279 0.02906696 -0.04538311 -0.08627165 0.17524431 0.38657054 0.30805101 0.34905100 -0.10855935 -0.14793666 0.21185872 0.17526241 -0.27481115 -0.19656255 0.33783815 0.25309919 0.28991617 0.29390471
layer0.attn_wq|1|0.46238356 -0.00235298 0.01641047 0.19088617 -0.67352268 -0.04443639 -0.10850179 -0.14113471 -0.01563234 0.04815459 -0.02967671 -0.21965782 -0.27657055 -0.08526002 0.33814876 -0.29003782 0.08442775 0.04943042 0.27321282 0.09784798 0.02430223 0.38852354 -0.32228488 -0.17494811 0.01949526 -0.07898114 -0.27250389 -0.50208146 0.16039020 0.48753212 0.22287194 0.44009040
layer0.attn_wq|2|-0.07514185 0.02432629 0.11917912 -0.07703430 0.49617606 0.46792034 -0.33374554 -0.10096556 0.01328046 0.19207909 -0.01824840 -0.09729824 0.07020833 -0.31317211 -0.16336667 -0.19630711 0.35164005 0.26503654 -0.03411231 -0.41672342 0.19740620 -0.29996031 0.10471820 -0.04244631 0.01344172 -0.06931310 0.26658977 0.08659161 -0.20092193 -0.18577267 0.17902957 -0.00138950
layer0.attn_wq|3|-0.28876532 0.17430062 0.00593467 0.20536988 0.30400637 -0.00437332 -0.07079006 -0.12422961 0.02213689 0.26957134 0.24100687 0.02006353 -0.41475773 0.11300551 -0.32526229 0.20067917 0.31209954 0.11151652 -0.00611027 -0.24447234 0.08331585 0.23426228 0.51549042 -0.35607670 -0.26993892 0.17103140 -0.06269221 -0.42212103 0.00809842 -0.11331205 -0.06699202 -0.11465152
layer0.attn_wq|4|-0.14917172 0.31496385 0.29369501 -0.24970663 0.17974412 0.11314093 0.06335380 0.05005246 0.26609688 -0.07207241 -0.11002349 -0.14276203 -0.44502122 -0.25719388 -0.14714204 -0.09161447 0.36509791 -0.20466369 -0.00604324 0.18402052 0.03582839 -0.31159822 -0.06836800 0.32550731 -0.33541080 -0.29699346 -0.22228484 0.24920583 -0.31595105 -0.11476833 -0.22223988 -0.07145211
layer0.attn_wq|5|-0.20775925 0.07882945 0.47033117 -0.13051318 0.31086074 0.16690397 -0.11811190 0.41083795 0.05683309 -0.22871016 0.18872053 0.17167754 -0.29433512 0.19584903 0.05669358 0.22538157 0.13879388 -0.39243113 -0.31349593 -0.14817303 0.17043752 0.24683036 -0.03046280 0.00663014 -0.09373648 -0.08831341 -0.10817443 -0.08984268 0.56926690 -0.04793732 0.28555737 -0.58984827
layer0.attn_wq|6|-0.09894883 0.27120457 -0.11200815 0.22060334 -0.54740502 0.10085460 -0.16304992 -0.29709159 0.00468279 -0.38103448 0.40098545 0.54119871 0.19602807 -0.11677305 -0.10905538 0.16973982 -0.23152680 0.45574489 0.19210815 -0.20412804 -0.42871604 0.09561829 0.11737251 0.03622591 0.37159883 -0.26033771 -0.21652183 -0.06390131 0.00440479 -0.16124372 -0.05279765 0.16381709
layer0.attn_wq|7|0.73098586 -0.32290613 -0.42089866 -0.28188085 0.08324030 0.01590898 -0.01377232 -0.67375319 0.24441283 0.32560959 -0.51872447 -0.14429064 0.32396548 -0.64065616 -0.63676442 -0.37963398 -0.10716948 1.02257515 0.38827732 -0.32889819 -0.08736189 -0.26957499 0.21116456 -0.31647165 0.10545693 -0.03270200 0.07452828 -0.36483103 -0.46078521 0.20224305 -0.29248114 0.26115188
layer0.attn_wq|8|0.28054554 -0.00701823 -0.04359445 0.06469991 0.29489158 -0.20615257 -0.19636467 0.19018128 0.22504813 0.14537230 -0.19539867 0.65038671 0.18442256 -0.42348607 -0.21077869 -0.27510529 0.14233312 -0.00763387 0.07484586 0.20865689 0.06223809 0.26078012 -0.17356016 0.34074925 -0.28693864 0.06141735 0.20051923 0.10542514 -0.47348988 0.01324018 0.51594729 0.09383960
layer0.attn_wq|9|-0.43799897 0.56739105 0.23696835 -0.05195117 0.05357236 -0.14898110 -0.10155128 0.11827852 0.06609780 -0.33657872 0.52830843 0.11910405 -0.85272594 -0.19020777 0.14080703 -0.32922424 0.68260498 -0.69241510 0.14019926 0.84865129 0.08939010 0.02043974 -0.11042127 0.45118683 -0.66867049 -0.04165629 -0.37857218 0.14559860 0.02754711 0.15822539 0.32890840 0.02419431
layer0.attn_wq|10|0.19114224 0.29568460 -0.51091268 0.08480366 -0.75798446 0.11618920 0.28550279 -0.54223015 -0.19333054 -0.34764183 0.03783184 0.09171023 -0.06687979 0.22683832 -0.06963683 -0.06610750 -0.37310299 0.78786798 0.04270972 -0.00593262 -0.64568216 -0.23300829 -0.09615912 -0.08482091 0.69320642 -0.33635870 -0.07958537 -0.12355927 -0.05269588 -0.45380686 -0.16276760 0.18055402
layer0.attn_wq|11|-0.02831356 0.25600399 -0.15991849 -0.14027780 0.01330655 0.07150716 0.19285099 -0.09309081 -0.18622752 0.18037839 -0.10604478 0.02142170 -0.11093512 -0.01109020 -0.25491808 0.05897530 0.25433192 -0.06093430 -0.37763811 -0.31489406 -0.04191565 -0.27936441 0.21454908 0.03457274 -0.20598569 -0.21753440 0.14386744 0.00567999 -0.07529568 0.02664740 0.06384317 0.37840281
layer0.attn_wq|12|0.46378837 0.18631553 -0.53038977 -0.01504448 0.30648808 -0.13710925 0.14315434 -0.19121660 -0.05287642 -0.21265810 -0.20320019 0.47185158 0.18998483 -0.20667862 -0.52863095 -0.30043000 0.03238730 0.25234047 0.00512568 -0.16786427 0.05034714 -0.46522710 0.37709634 0.12976507 0.01327745 0.07021878 0.27840266 0.37247054 -0.18970465 -0.34408647 0.03381721 0.10485854
layer0.attn_wq|13|0.07797160 -0.28125867 -0.19165595 -0.25409394 -0.01903336 0.11503204 -0.25961567 0.21563789 0.33231744 -0.14469813 -0.39581706 0.15112339 0.25285799 -0.02586871 -0.04500461 0.15481496 0.25343209 -0.08477120 0.07080883 0.01222722 -0.23556174 0.17154639 -0.08850844 -0.14961392 0.21113866 0.18000632 -0.17678604 -0.13385896 0.59489759 0.37170938 -0.09717830 0.19345909
layer0.attn_wq|14|0.28032162 -0.32661411 0.15849938 -0.21087241 0.13602511 0.08110545 0.31824068 0.11028318 -0.16427426 0.37614664 -0.33575468 -0.57286644 -0.06634531 0.03596353 -0.06477142 -0.01181434 -0.06502163 -0.07738462 -0.16523303 -0.17955573 0.14714502 0.15258001 -0.08800451 -0.04746402 0.06197081 0.02092443 -0.01709506 -0.39494741 0.04564976 0.28737562 0.02711910 -0.06558605
layer0.attn_wq|15|-0.07164208 -0.25617952 0.11692551 0.13362035 0.50415638 0.20866396 -0.13837337 0.31668784 -0.00039384 0.16416489 -0.14247712 -0.35218490 -0.10455726 0.02545276 -0.14452496 -0.01044476 -0.03910778 -0.46349763 -0.09326560 -0.06430897 0.37856836 0.16777656 -0.04701387 -0.09409329 -0.00417882 0.14927750 0.24766311 0.06052267 -0.03840963 0.41496504 -0.20289948 -0.04804717
layer0.attn_wq|16|0.06207017 0.33674160 0.12349546 -0.24401833 0.14163346 0.34377228 -0.01597800 -0.09332089 0.02956643 0.17227567 -0.32741927 0.10480021 -0.07956846 -0.39873565 -0.24336104 0.03261113 0.56292804 0.18329192 0.13884881 0.35674193 0.03689504 -0.50659510 -0.12140337 0.01841270 -0.32340331 0.23741811 -0.24003681 0.04350868 0.10948484 0.57994740 -0.25955448 0.37396137
layer0.attn_wq|17|-0.15109615 0.17381385 0.16329305 -0.36197941 0.31185021 -0.01340217 0.22913424 0.19483833 0.26390784 0.16329746 -0.27318882 -0.06150361 0.36071146 0.40417935 -0.06948720 -0.00430646 0.26634919 0.29393430 -0.11871326 0.10426145 0.14118601 -0.29630391 -0.27233687 0.12586218 -0.17982329 0.25225812 -0.14521280 0.28771417 -0.56865839 0.43988092 0.02537486 -0.10466045
layer0.attn_wq|18|-0.11322582 0.32699969 -0.11420670 -0.09314672 0.28403945 0.12583212 -0.16484867 0.05571944 0.29985662 0.02712585 -0.24406007 0.24362233 0.33481783 -0.07698683 -0.34311648 0.28792026 0.32239016 -0.04302310 0.21414148 -0.03490969 0.11770656 -0.19382414 0.30782179 0.31195778 -0.14119886 0.00898102 -0.06414254 0.18943421 0.09777812 -0.23009144 -0.00081664 -0.36035016
layer0.attn_wq|19|-0.12917186 -0.32382771 0.34225656 0.14014253 0.64635297 -0.36479943 0.26589552 0.35827163 0.38972458 0.33620263 0.53206960 -0.25965575 0.25997410 -0.02087165 0.18014359 0.28068573 0.23549577 0.24422186 0.05451145 -0.13635476 -0.34083583 0.12408739 -0.32359467 -0.17625219 -0.04463977 -0.52201186 -0.14212446 -0.25048587 -0.38719340 -0.00244219 0.54561063 -0.15402630
layer0.attn_wq|20|0.15536565 -0.10845223 -0.01290026 0.29617706 -0.33929977 0.03795133 -0.31004336 -0.10373623 0.36297865 0.00385800 -0.10553465 0.13608016 0.39946159 -0.05937846 0.22589455 0.18087626 -0.36879003 0.66078085 0.06660404 0.09255531 -0.24951054 0.34182867 0.30607845 -0.01030990 0.49335780 -0.22611455 -0.01832799 0.07071691 -0.05709415 0.17089034 0.19290412 0.29559665
layer0.attn_wq|21|-0.13897288 -0.01828762 -0.31053591 0.23521042 -0.36600830 -0.34259671 -0.16789719 -0.23700553 -0.29220049 0.11032354 0.15862968 0.50193830 -0.10582767 -0.03344967 -0.38948039 0.06599361 -0.24980289 0.05252584 0.40352565 0.05161035 -0.02874713 0.07167922 0.01965253 -0.14452203 -0.08794881 0.18852043 0.05218323 -0.06837697 0.19875223 -0.02966771 -0.22369721 0.10107721
layer0.attn_wq|22|0.19862148 0.07782684 -0.05262065 -0.23205154 -0.36623367 -0.02607989 -0.00844271 0.10409629 0.17967290 0.08754262 0.59145832 -0.07871443 -0.35024480 0.09464664 0.21919983 0.13390575 -0.30393015 -0.04294337 -0.26278175 0.23209684 -0.26236811 0.34897617 -0.07558638 -0.30445210 0.21424522 0.27905330 -0.44440330 -0.38856854 -0.01939362 0.02053856 0.08350388 0.12490102
layer0.attn_wq|23|-0.12319420 0.01973672 -0.03034259 -0.31482573 0.21523435 0.17446439 -0.06263507 0.06920073 0.04357623 -0.10286158 -0.46053073 -0.10649464 0.34051815 0.07245429 -0.46832658 -0.08983890 0.11463092 0.04144395 -0.30254556 -0.44512402 0.03485842 -0.30594165 0.03984655 0.02493211 0.24321395 0.12287409 0.12083476 0.47776181 -0.48227946 0.00208566 -0.38322148 -0.14705591
layer0.attn_wq|24|0.11972170 -0.07426943 -0.24365627 -0.27696133 -0.24848544 0.10359885 0.20197792 -0.05613973 -0.10653998 0.52535848 0.01347110 -0.34088312 0.47681067 0.37201251 -0.39978214 0.01752412 -0.74820072 0.67254974 -0.49756833 -0.07055834 -0.23596309 -0.24630546 0.05015394 0.17907865 0.32639783 -0.19873100 -0.15541204 0.00426354 -0.28771523 -0.17949431 -0.71650915 -0.29050187
layer0.attn_wq|25|0.28663648 -0.10081583 -0.27051339 0.32797599 -0.33543467 0.00261027 0.15483913 -0.33422962 -0.06642798 -0.25162254 -0.30087671 0.43344728 0.53247121 -0.12181809 0.09145152 -0.15037586 -0.21194975 0.40104984 0.16758559 -0.07046101 -0.21296338 -0.13512972 -0.08867732 0.09490154 0.23301709 -0.24638617 -0.07788257 0.00175854 -0.01373854 -0.42141802 -0.07691271 0.08451763
layer0.attn_wq|26|-0.34219641 -0.07241740 0.33692137 0.55524011 -0.12136519 -0.46155055 -0.04962354 0.05448733 0.15252466 -0.42488302 0.50531696 0.32736987 -0.20589946 0.00617644 0.79157592 0.28774145 -0.14920173 -0.47377430 0.35773590 0.58625730 -0.39846454 0.24818749 -0.08930839 0.36496870 0.12927346 0.17319877 -0.03747526 0.32920814 0.17374371 0.20811168 0.23211663 0.32723002
layer0.attn_wq|27|-0.29338270 0.02303000 0.28017787 0.10473171 -0.03918128 -0.01515513 0.11912513 0.01057239 -0.29233124 0.02380581 -0.25728040 -0.12589508 -0.03776502 0.05855554 0.14307580 0.01231917 -0.45475810 -0.05962880 -0.31309209 0.02911650 0.07223419 -0.00762901 -0.25321151 0.00650893 -0.09535144 -0.01843418 0.02308322 0.18112555 0.02535871 0.03922252 -0.41000473 -0.28522799
layer0.attn_wq|28|0.08283330 -0.16509633 0.09062136 -0.27076170 0.10887892 0.03718974 0.20070408 0.24196534 0.11724774 0.37747624 0.00847291 -0.13316531 0.04668802 0.24320762 0.42091339 -0.04949396 0.01476919 -0.03605228 -0.22910977 0.01779174 0.01431927 0.09869931 -0.00654068 0.17835337 -0.21101051 0.17331960 -0.30298404 -0.00789197 -0.15523560 0.09406194 0.04375320 -0.35182142
layer0.attn_wq|29|0.22376863 0.31389448 -0.23734661 -0.32047219 0.21125795 0.00050317 0.26214036 0.13423008 -0.01241375 0.43002832 0.46259138 0.19046050 0.13668125 0.00604368 -0.20560217 -0.16632346 0.02909607 0.14243101 0.02508721 -0.33045733 -0.09493763 -0.03911586 -0.22085162 -0.03890859 0.11440931 0.16806019 0.25245036 -0.20596579 -0.34115342 -0.57773660 0.35560867 -0.11091136
layer0.attn_wq|30|-0.28084433 0.24186811 -0.09544644 -0.22961033 0.12014306 0.55074402 0.40168409 0.14431984 -0.24221732 0.07499485 -0.26852078 -0.62120886 -0.01544972 0.18829548 -0.41210971 0.20774613 -0.26794720 0.27553190 -0.17176346 -0.12232351 0.39786229 -0.69994350 -0.41476473 -0.03742941 0.25885457 -0.34422560 -0.09038227 -0.10193701 -0.47393375 0.06845370 -0.40055022 -0.43785772
layer0.attn_wq|31|0.35814310 -0.18114355 0.15146409 0.20888334 0.06660598 -0.06303929 0.22069943 -0.04710706 -0.25194324 0.08141270 -0.00168788 -0.21074217 0.02939469 0.08727564 0.10365894 -0.26575898 -0.34405086 -0.25334806 -0.29569166 0.14357233 0.05112633 0.31557782 -0.31221423 -0.03396103 -0.09443870 0.02674741 0.16667592 -0.25255919 0.05061537 0.25178465 -0.01052692 0.00227152
layer0.attn_wk|0|-0.21065362 0.05458690 -0.07233963 0.15545734 -0.34254158 0.15030643 -0.20396208 -0.09833221 0.19224080 -0.63937777 -0.69144968 0.16156731 0.33356628 -0.09666322 -0.09460740 0.07135201 0.29824690 -0.13676101 -0.00165306 -0.06043170 0.30000248 -0.20849698 0.36108482 0.29321564 -0.20809533 -0.39997430 0.02537130 -0.42254007 0.16926676 -0.09991741 -0.29725906 -0.44104641
layer0.attn_wk|1|-0.10566245 0.29691371 -0.86884808 -0.03176673 -0.34964339 -0.20440480 -0.21076479 -0.31094579 0.52598316 -0.20118497 0.35755576 0.52279236 0.07068621 -0.29521248 -0.43077716 -0.23892319 -0.06811129 1.01890097 0.18560044 -0.05725679 0.02248527 -0.26904069 0.21073592 0.03026709 0.16711079 -0.06372822 0.11184078 -0.15793483 -0.13372000 -0.49143126 -0.13485073 0.04498654
layer0.attn_wk|2|0.09947917 -0.21845253 -0.05621653 0.15794497 0.16052359 -0.38946506 -0.14793038 0.05772029 -0.33927054 0.41652001 0.26009862 0.17953879 -0.08871449 0.45444935 0.18601783 0.26018373 -0.09256498 -0.03759741 0.04352226 -0.21634065 0.03298671 0.32677431 -0.09815399 -0.12025333 -0.04172715 0.29508205 -0.01545785 0.49772222 0.10912185 -0.12390456 0.06149950 0.12076947
layer0.attn_wk|3|-0.10677433 -0.22715207 0.17083183 0.25243400 -0.16650446 -0.29855383 -0.25619825 0.09772482 -0.26594733 -0.42222148 -0.01802347 -0.35742071 0.21614615 0.19420326 0.28938124 -0.19483173 -0.09503374 -0.71285694 0.15915337 -0.31641991 0.24244496 0.41968436 0.02055682 -0.00959822 0.54348864 -0.24561663 0.05703200 -0.46033780 0.26474286 -0.21538788 -0.14446014 -0.36293807
layer0.attn_wk|4|0.41791723 -0.33408561 0.10637945 0.09918946 -0.26693528 -0.16275861 -0.05883012 -0.01113361 -0.17433245 -0.04169662 -0.22129512 -0.03801818 -0.14202030 0.01450295 0.22110862 0.39855787 -0.36345519 -0.45966846 0.46230613 -0.17921142 -0.09433527 -0.22467034 0.16785260 -0.29049031 0.09230852 -0.36774545 0.30313978 -0.71823135 0.76004536 -0.27518756 0.03514629 0.16771099
layer0.attn_wk|5|-0.03504181 0.05519044 0.66904924 0.34651617 -0.21313151 -0.07135525 -0.01401309 0.05331748 -0.27589996 -0.49033387 -0.64493049 -0.06649023 0.59841980 -0.09798198 0.38504342 0.06250422 0.01013046 -0.88837012 0.16959959 0.08353887 0.32773948 -0.10245004 0.19049970 0.15104497 -0.01864950 -0.40358929 -0.03420904 -0.67301102 0.31804388 -0.35727926 -0.01236430 -0.02608294
layer0.attn_wk|6|-0.17393357 0.21143333 -0.37029679 -0.17120748 0.07902162 0.06888910 0.09055801 0.16499689 -0.10277068 0.40935581 -0.28606292 -0.38664636 -0.35865305 0.16192655 -0.18454145 -0.00480031 0.65588649 -0.10963656 -0.68195889 -0.44234801 0.15976799 -0.22646411 0.11578156 0.19346590 -0.29463173 0.58232312 -0.02436517 0.36548877 -0.36450647 0.26472920 -0.77564804 -0.05526647
layer0.attn_wk|7|-0.19006457 -0.05000577 -0.86665497 -0.18427345 0.31521170 -0.18881664 0.13393666 0.02013177 0.20302078 0.73740101 0.86816633 0.18592507 -0.35911273 0.31015513 -0.53881570 -0.06815160 -0.24340023 0.99838364 -0.05726950 -0.32243590 -0.65006968 0.18984868 -0.22858437 -0.28203969 0.14070502 0.73652178 -0.09670443 0.86352449 -0.41824259 0.13378550 0.25493810 0.22401278
layer0.attn_wk|8|-0.07948975 0.22753216 -0.65113078 0.21398539 -0.19507242 -0.41361015 -0.18509761 0.09539521 0.00179976 0.28707400 0.55900010 -0.10944195 -0.03231541 0.23253456 -0.31438108 0.14648120 -0.38927110 0.39561270 -0.11795392 0.13947557 -0.00930580 0.39805252 -0.30830981 0.20936771 -0.22351721 -0.06538112 -0.21450896 -0.40269623 -0.23691285 0.30216510 -0.21403725 -0.09599143
layer0.attn_wk|9|0.25498115 -0.08130848 0.30115036 0.21035645 -0.63442011 0.00625604 -0.42904899 -0.27937538 -0.20996640 -0.78703398 -0.48609057 0.17256915 0.57568126 0.08683576 0.25829439 0.21074672 0.01849240 -0.84904178 0.06113770 -0.18752943 0.60629289 -0.02141484 0.33041961 0.12526134 0.20466906 -0.56825412 0.42509910 -1.02249340 0.62366732 -0.43310644 -0.17325576 -0.12511025
layer0.attn_wk|10|0.25043164 -0.10255859 -0.36784132 -0.31147878 0.67034421 0.11542469 -0.22418915 -0.07699244 0.13893403 0.54440850 0.33482511 0.09791812 -0.50868351 0.09048279 -0.66844565 -0.13239118 0.12822486 0.50493088 0.10057529 -0.62868884 -0.16560542 -0.02496125 0.13627069 -0.36062038 0.06608298 0.71051600 0.33447381 1.05871114 -0.24834108 0.24707064 0.18277125 0.13418229
layer0.attn_wk|11|0.06149603 0.08294206 -0.00200243 -0.00309699 -0.30752310 0.08448124 -0.05569528 0.09740806 0.23388356 -0.17609253 0.40159514 0.05339421 -0.11035877 -0.07688227 -0.17524312 -0.20426352 0.06434260 0.01223921 -0.01374015 0.08828082 -0.17609269 -0.05142052 0.02214725 -0.32985420 0.13392560 0.26460911 0.11528284 -0.04677520 0.24260178 0.06063442 0.11090856 -0.34968184
layer0.attn_wk|12|-0.26572480 -0.16784400 -0.67759157 -0.04713173 -0.01822345 -0.26195714 -0.13729881 -0.22037371 -0.10132192 0.56722893 0.85867650 -0.06259513 -0.51041635 0.51144839 -0.54792596 -0.21354219 -0.00153772 0.33875597 -0.02676474 0.04859606 -0.02614606 0.47063620 -0.35910818 -0.11376982 -0.10929238 0.64269396 0.01745306 0.14482875 -0.47797413 0.05990660 0.04188610 -0.09304569
layer0.attn_wk|13|-0.04398239 0.33077703 -0.19235213 -0.22212407 0.42566572 0.13678206 0.45446052 -0.12931682 0.04815188 0.01943944 -0.01580342 0.05312132 -0.02110833 -0.18311640 -0.13269723 -0.03953755 0.10037529 0.25867237 0.04488372 0.05491884 0.26757440 -0.10688201 -0.06255207 0.12186030 -0.04698881 0.08713693 -0.21330208 -0.09824860 -0.15062373 0.49455971 -0.28685682 -0.21120826
layer0.attn_wk|14|0.32050347 0.46626801 0.03181941 -0.26257474 0.23214342 -0.06140603 0.20882685 0.17968457 0.13105363 -0.02273532 0.34318290 0.28675342 -0.27577446 -0.26270894 0.33002427 0.04871663 -0.07997320 0.44808539 0.09760039 0.10950805 -0.43628490 -0.02953916 -0.45437107 -0.05078388 0.12330038 -0.59769652 -0.49692797 0.42423099 -0.31187825 0.14511563 0.29711522 -0.03117540
layer0.attn_wk|15|0.12346844 0.13095352 0.37295920 0.12756308 -0.33856722 -0.05327121 0.18004978 -0.07229707 -0.24999513 -0.32533870 -0.25238257 -0.27808753 -0.15931393 -0.05889564 0.56158637 0.00730036 -0.16331886 -0.09347969 -0.38278047 0.43893316 0.01805682 -0.03000269 -0.04960293 0.26159788 -0.09108213 -0.53292974 -0.28836305 -0.20814507 0.07231984 -0.27709317 0.02340667 -0.01191186
layer0.attn_wk|16|-0.19237285 0.00289999 0.13484752 0.40176576 -0.61883695 0.00096391 -0.13257230 0.18420703 0.05763707 -0.50164201 -0.27551591 -0.12014556 0.13374581 -0.12522919 0.64288824 0.02527493 -0.10047020 0.35289821 0.26258000 -0.02243709 -0.51430796 -0.33773784 -0.31083644 0.05709756 0.08729646 -0.21892359 -0.15460377 -0.41729407 -0.03979397 0.32599359 -0.25629771 -0.29415258
layer0.attn_wk|17|-0.35141738 -0.11547651 -0.02873002 0.31901241 -0.47886599 0.00257683 -0.11836750 0.22001439 -0.04350512 0.02456389 0.30213057 -0.46538312 -0.25358363 0.00630467 0.16467946 -0.06493567 -0.17968263 0.29558175 0.15019890 -0.18332410 -0.42598976 -0.16754135 -0.19051381 -0.33152180 -0.11154326 0.73396573 -0.12391403 0.11260956 -0.26240668 0.51343015 -0.17867690 0.13795625
layer0.attn_wk|18|-0.35520551 -0.13662387 0.33252662 0.09059459 0.01978260 0.00227942 0.01678969 0.17317621 -0.03422858 0.14819285 0.01806038 -0.38677654 0.17702179 0.40336557 0.30469786 0.02447994 0.15067593 -0.80459464 -0.33717285 0.07887326 0.22602453 -0.13705627 0.48138681 0.09476785 -0.20739038 0.53483269 0.35097491 -0.87275221 0.60417150 -0.27274937 -0.00876822 0.15609857
layer0.attn_wk|19|-0.41364880 0.71443156 -0.61028782 -0.10637113 0.26526810 -0.18629090 0.07661539 -0.08335742 0.15892673 0.46705614 0.52463537 -0.04933562 -0.03478192 0.51299838 -0.48030476 0.16808356 -0.46134902 0.22337602 0.13342645 -0.00080364 -0.27456069 0.36127640 -0.30719490 0.03079273 0.09398908 0.27741077 0.01554418 -0.01604000 -0.05365814 0.36106183 0.05990425 -0.21014404
